-2.20644e+06, -6.61528e+06, -1.1012e+07, -1.53884e+07, -1.97365e+07, -2.40482e+07, -2.83153e+07, -3.25298e+07, -3.66836e+07, -4.07686e+07, -4.47767e+07, -4.86999e+07, -5.25301e+07, -5.62594e+07, -5.98797e+07, -6.33831e+07, -6.67618e+07, -7.00078e+07, -7.31135e+07, -7.60712e+07, -7.88734e+07, -8.15126e+07, -8.39815e+07, -8.6273e+07, -8.83803e+07, -9.02964e+07, -9.20151e+07, -9.353e+07, -9.48353e+07, -9.59254e+07, -9.67949e+07, -9.74391e+07, -9.78536e+07, -9.80345e+07, -9.79782e+07, -9.76819e+07, -9.71432e+07, -9.63604e+07, -9.53325e+07, -9.4059e+07, -9.25402e+07, -9.07773e+07, -8.87719e+07, -8.65268e+07, -8.40454e+07, -8.1332e+07, -7.83916e+07, -7.52303e+07, -7.18548e+07, -6.8273e+07, -6.44933e+07, -6.05251e+07, -5.63787e+07, -5.2065e+07, -4.75958e+07, -4.29835e+07, -3.82412e+07, -3.33828e+07, -2.84225e+07, -2.33751e+07, -1.82558e+07, -1.30803e+07, -7.86438e+06, -2.62417e+06, 2.62417e+06, 7.86438e+06, 1.30803e+07, 1.82558e+07, 2.33751e+07, 2.84225e+07, 3.33828e+07, 3.82412e+07, 4.29835e+07, 4.75958e+07, 5.2065e+07, 5.63787e+07, 6.05251e+07, 6.44933e+07, 6.8273e+07, 7.18548e+07, 7.52303e+07, 7.83916e+07, 8.1332e+07, 8.40454e+07, 8.65268e+07, 8.87719e+07, 9.07773e+07, 9.25402e+07, 9.4059e+07, 9.53325e+07, 9.63604e+07, 9.71432e+07, 9.76819e+07, 9.79782e+07, 9.80345e+07, 9.78536e+07, 9.74391e+07, 9.67949e+07, 9.59254e+07, 9.48353e+07, 9.353e+07, 9.20151e+07, 9.02964e+07, 8.83803e+07, 8.6273e+07, 8.39815e+07, 8.15126e+07, 7.88734e+07, 7.60712e+07, 7.31135e+07, 7.00078e+07, 6.67618e+07, 6.33831e+07, 5.98797e+07, 5.62594e+07, 5.25301e+07, 4.86999e+07, 4.47767e+07, 4.07686e+07, 3.66836e+07, 3.25298e+07, 2.83153e+07, 2.40482e+07, 1.97365e+07, 1.53884e+07, 1.1012e+07, 6.61528e+06, 2.20644e+06
-2.21049e+06, -6.62743e+06, -1.10322e+07, -1.54168e+07, -1.9773e+07, -2.40927e+07, -2.83679e+07, -3.25905e+07, -3.67524e+07, -4.08455e+07, -4.48616e+07, -4.87929e+07, -5.26311e+07, -5.63683e+07, -5.99966e+07, -6.35079e+07, -6.68944e+07, -7.01482e+07, -7.32615e+07, -7.62268e+07, -7.90364e+07, -8.16828e+07, -8.41589e+07, -8.64574e+07, -8.85713e+07, -9.0494e+07, -9.22188e+07, -9.37397e+07, -9.50506e+07, -9.61458e+07, -9.70202e+07, -9.76689e+07, -9.80873e+07, -9.82716e+07, -9.82182e+07, -9.79242e+07, -9.73873e+07, -9.66056e+07, -9.55781e+07, -9.43043e+07, -9.27844e+07, -9.10197e+07, -8.90117e+07, -8.67632e+07, -8.42775e+07, -8.15589e+07, -7.86125e+07, -7.54444e+07, -7.20612e+07, -6.84708e+07, -6.46818e+07, -6.07034e+07, -5.6546e+07, -5.22205e+07, -4.77388e+07, -4.31134e+07, -3.83574e+07, -3.34847e+07, -2.85095e+07, -2.34469e+07, -1.83121e+07, -1.31207e+07, -7.8887e+06, -2.63229e+06, 2.63229e+06, 7.8887e+06, 1.31207e+07, 1.83121e+07, 2.34469e+07, 2.85095e+07, 3.34847e+07, 3.83574e+07, 4.31134e+07, 4.77388e+07, 5.22205e+07, 5.6546e+07, 6.07034e+07, 6.46818e+07, 6.84708e+07, 7.20612e+07, 7.54444e+07, 7.86125e+07, 8.15589e+07, 8.42775e+07, 8.67632e+07, 8.90117e+07, 9.10197e+07, 9.27844e+07, 9.43043e+07, 9.55781e+07, 9.66056e+07, 9.73873e+07, 9.79242e+07, 9.82182e+07, 9.82716e+07, 9.80873e+07, 9.76689e+07, 9.70202e+07, 9.61458e+07, 9.50506e+07, 9.37397e+07, 9.22188e+07, 9.0494e+07, 8.85713e+07, 8.64574e+07, 8.41589e+07, 8.16828e+07, 7.90364e+07, 7.62268e+07, 7.32615e+07, 7.01482e+07, 6.68944e+07, 6.35079e+07, 5.99966e+07, 5.63683e+07, 5.26311e+07, 4.87929e+07, 4.48616e+07, 4.08455e+07, 3.67524e+07, 3.25905e+07, 2.83679e+07, 2.40927e+07, 1.9773e+07, 1.54168e+07, 1.10322e+07, 6.62743e+06, 2.21049e+06
-2.21859e+06, -6.65172e+06, -1.10727e+07, -1.54734e+07, -1.98458e+07, -2.41818e+07, -2.84732e+07, -3.2712e+07, -3.689e+07, -4.09992e+07, -4.50315e+07, -4.89788e+07, -5.28331e+07, -5.65863e+07, -6.02304e+07, -6.37575e+07, -6.71596e+07, -7.04289e+07, -7.35576e+07, -7.6538e+07, -7.93625e+07, -8.20235e+07, -8.45138e+07, -8.68262e+07, -8.89536e+07, -9.08893e+07, -9.26266e+07, -9.41593e+07, -9.54814e+07, -9.65872e+07, -9.74713e+07, -9.81288e+07, -9.85552e+07, -9.87464e+07, -9.86989e+07, -9.84096e+07, -9.78761e+07, -9.70966e+07, -9.60699e+07, -9.47955e+07, -9.32736e+07, -9.15052e+07, -8.9492e+07, -8.72366e+07, -8.47424e+07, -8.20136e+07, -7.90553e+07, -7.58734e+07, -7.24749e+07, -6.88674e+07, -6.50595e+07, -6.10607e+07, -5.68813e+07, -5.25323e+07, -4.80257e+07, -4.33739e+07, -3.85904e+07, -3.36889e+07, -2.86841e+07, -2.3591e+07, -1.84249e+07, -1.32017e+07, -7.93745e+06, -2.64856e+06, 2.64856e+06, 7.93745e+06, 1.32017e+07, 1.84249e+07, 2.3591e+07, 2.86841e+07, 3.36889e+07, 3.85904e+07, 4.33739e+07, 4.80257e+07, 5.25323e+07, 5.68813e+07, 6.10607e+07, 6.50595e+07, 6.88674e+07, 7.24749e+07, 7.58734e+07, 7.90553e+07, 8.20136e+07, 8.47424e+07, 8.72366e+07, 8.9492e+07, 9.15052e+07, 9.32736e+07, 9.47955e+07, 9.60699e+07, 9.70966e+07, 9.78761e+07, 9.84096e+07, 9.86989e+07, 9.87464e+07, 9.85552e+07, 9.81288e+07, 9.74713e+07, 9.65872e+07, 9.54814e+07, 9.41593e+07, 9.26266e+07, 9.08893e+07, 8.89536e+07, 8.68262e+07, 8.45138e+07, 8.20235e+07, 7.93625e+07, 7.6538e+07, 7.35576e+07, 7.04289e+07, 6.71596e+07, 6.37575e+07, 6.02304e+07, 5.65863e+07, 5.28331e+07, 4.89788e+07, 4.50315e+07, 4.09992e+07, 3.689e+07, 3.2712e+07, 2.84732e+07, 2.41818e+07, 1.98458e+07, 1.54734e+07, 1.10727e+07, 6.65172e+06, 2.21859e+06
-2.23074e+06, -6.68816e+06, -1.11334e+07, -1.55585e+07, -1.99552e+07, -2.43154e+07, -2.86311e+07, -3.28941e+07, -3.70964e+07, -4.12299e+07, -4.52864e+07, -4.92578e+07, -5.31361e+07, -5.69133e+07, -6.05813e+07, -6.41321e+07, -6.75577e+07, -7.08503e+07, -7.40021e+07, -7.70052e+07, -7.9852e+07, -8.2535e+07, -8.50467e+07, -8.738e+07, -8.95277e+07, -9.14829e+07, -9.3239e+07, -9.47896e+07, -9.61286e+07, -9.72502e+07, -9.8149e+07, -9.88198e+07, -9.92582e+07, -9.94599e+07, -9.94212e+07, -9.91391e+07, -9.8611e+07, -9.78348e+07, -9.68095e+07, -9.55343e+07, -9.40093e+07, -9.22355e+07, -9.02146e+07, -8.79489e+07, -8.54419e+07, -8.26978e+07, -7.97215e+07, -7.65192e+07, -7.30975e+07, -6.94643e+07, -6.56282e+07, -6.15987e+07, -5.73862e+07, -5.30018e+07, -4.84576e+07, -4.37662e+07, -3.89412e+07, -3.39966e+07, -2.89471e+07, -2.38079e+07, -1.85948e+07, -1.33236e+07, -8.01089e+06, -2.67308e+06, 2.67308e+06, 8.01089e+06, 1.33236e+07, 1.85948e+07, 2.38079e+07, 2.89471e+07, 3.39966e+07, 3.89412e+07, 4.37662e+07, 4.84576e+07, 5.30018e+07, 5.73862e+07, 6.15987e+07, 6.56282e+07, 6.94643e+07, 7.30975e+07, 7.65192e+07, 7.97215e+07, 8.26978e+07, 8.54419e+07, 8.79489e+07, 9.02146e+07, 9.22355e+07, 9.40093e+07, 9.55343e+07, 9.68095e+07, 9.78348e+07, 9.8611e+07, 9.91391e+07, 9.94212e+07, 9.94599e+07, 9.92582e+07, 9.88198e+07, 9.8149e+07, 9.72502e+07, 9.61286e+07, 9.47896e+07, 9.3239e+07, 9.14829e+07, 8.95277e+07, 8.738e+07, 8.50467e+07, 8.2535e+07, 7.9852e+07, 7.70052e+07, 7.40021e+07, 7.08503e+07, 6.75577e+07, 6.41321e+07, 6.05813e+07, 5.69133e+07, 5.31361e+07, 4.92578e+07, 4.52864e+07, 4.12299e+07, 3.70964e+07, 3.28941e+07, 2.86311e+07, 2.43154e+07, 1.99552e+07, 1.55585e+07, 1.11334e+07, 6.68816e+06, 2.23074e+06
-2.24693e+06, -6.73675e+06, -1.12144e+07, -1.56719e+07, -2.01009e+07, -2.44936e+07, -2.88417e+07, -3.31371e+07, -3.73717e+07, -4.15375e+07, -4.56262e+07, -4.96299e+07, -5.35404e+07, -5.73495e+07, -6.10493e+07, -6.46318e+07, -6.80889e+07, -7.14126e+07, -7.45951e+07, -7.76286e+07, -8.05053e+07, -8.32177e+07, -8.57581e+07, -8.81194e+07, -9.02942e+07, -9.22756e+07, -9.40569e+07, -9.56315e+07, -9.69932e+07, -9.8136e+07, -9.90545e+07, -9.97434e+07, -1.00198e+08, -1.00414e+08, -1.00387e+08, -1.00115e+08, -9.95938e+07, -9.88223e+07, -9.77989e+07, -9.65227e+07, -9.49938e+07, -9.3213e+07, -9.11818e+07, -8.89026e+07, -8.63786e+07, -8.36141e+07, -8.0614e+07, -7.73842e+07, -7.39317e+07, -7.02641e+07, -6.63903e+07, -6.23197e+07, -5.80629e+07, -5.36311e+07, -4.90366e+07, -4.42922e+07, -3.94116e+07, -3.44091e+07, -2.92997e+07, -2.40989e+07, -1.88226e+07, -1.34872e+07, -8.10938e+06, -2.70597e+06, 2.70597e+06, 8.10938e+06, 1.34872e+07, 1.88226e+07, 2.40989e+07, 2.92997e+07, 3.44091e+07, 3.94116e+07, 4.42922e+07, 4.90366e+07, 5.36311e+07, 5.80629e+07, 6.23197e+07, 6.63903e+07, 7.02641e+07, 7.39317e+07, 7.73842e+07, 8.0614e+07, 8.36141e+07, 8.63786e+07, 8.89026e+07, 9.11818e+07, 9.3213e+07, 9.49938e+07, 9.65227e+07, 9.77989e+07, 9.88223e+07, 9.95938e+07, 1.00115e+08, 1.00387e+08, 1.00414e+08, 1.00198e+08, 9.97434e+07, 9.90545e+07, 9.8136e+07, 9.69932e+07, 9.56315e+07, 9.40569e+07, 9.22756e+07, 9.02942e+07, 8.81194e+07, 8.57581e+07, 8.32177e+07, 8.05053e+07, 7.76286e+07, 7.45951e+07, 7.14126e+07, 6.80889e+07, 6.46318e+07, 6.10493e+07, 5.73495e+07, 5.35404e+07, 4.96299e+07, 4.56262e+07, 4.15375e+07, 3.73717e+07, 3.31371e+07, 2.88417e+07, 2.44936e+07, 2.01009e+07, 1.56719e+07, 1.12144e+07, 6.73675e+06, 2.24693e+06
-2.26718e+06, -6.79748e+06, -1.13156e+07, -1.58136e+07, -2.02832e+07, -2.47163e+07, -2.91049e+07, -3.34408e+07, -3.77159e+07, -4.19221e+07, -4.60512e+07, -5.00952e+07, -5.40459e+07, -5.78951e+07, -6.16348e+07, -6.52569e+07, -6.87533e+07, -7.21161e+07, -7.53372e+07, -7.84088e+07, -8.1323e+07, -8.40722e+07, -8.66487e+07, -8.90451e+07, -9.12541e+07, -9.32685e+07, -9.50814e+07, -9.66863e+07, -9.80766e+07, -9.92463e+07, -1.0019e+08, -1.00901e+08, -1.01376e+08, -1.0161e+08, -1.01599e+08, -1.01339e+08, -1.00827e+08, -1.00062e+08, -9.9041e+07, -9.77639e+07, -9.62303e+07, -9.44409e+07, -9.2397e+07, -9.0101e+07, -8.75559e+07, -8.4766e+07, -8.1736e+07, -7.8472e+07, -7.49808e+07, -7.12703e+07, -6.73491e+07, -6.32269e+07, -5.89145e+07, -5.44232e+07, -4.97654e+07, -4.49543e+07, -4.00038e+07, -3.49286e+07, -2.97438e+07, -2.44654e+07, -1.91096e+07, -1.36933e+07, -8.23343e+06, -2.74739e+06, 2.74739e+06, 8.23343e+06, 1.36933e+07, 1.91096e+07, 2.44654e+07, 2.97438e+07, 3.49286e+07, 4.00038e+07, 4.49543e+07, 4.97654e+07, 5.44232e+07, 5.89145e+07, 6.32269e+07, 6.73491e+07, 7.12703e+07, 7.49808e+07, 7.8472e+07, 8.1736e+07, 8.4766e+07, 8.75559e+07, 9.0101e+07, 9.2397e+07, 9.44409e+07, 9.62303e+07, 9.77639e+07, 9.9041e+07, 1.00062e+08, 1.00827e+08, 1.01339e+08, 1.01599e+08, 1.0161e+08, 1.01376e+08, 1.00901e+08, 1.0019e+08, 9.92463e+07, 9.80766e+07, 9.66863e+07, 9.50814e+07, 9.32685e+07, 9.12541e+07, 8.90451e+07, 8.66487e+07, 8.40722e+07, 8.1323e+07, 7.84088e+07, 7.53372e+07, 7.21161e+07, 6.87533e+07, 6.52569e+07, 6.16348e+07, 5.78951e+07, 5.40459e+07, 5.00952e+07, 4.60512e+07, 4.19221e+07, 3.77159e+07, 3.34408e+07, 2.91049e+07, 2.47163e+07, 2.02832e+07, 1.58136e+07, 1.13156e+07, 6.79748e+06, 2.26718e+06
-2.29147e+06, -6.87036e+06, -1.14371e+07, -1.59836e+07, -2.05018e+07, -2.49836e+07, -2.94208e+07, -3.38053e+07, -3.8129e+07, -4.23838e+07, -4.65614e+07, -5.06538e+07, -5.46528e+07, -5.85502e+07, -6.23378e+07, -6.60076e+07, -6.95514e+07, -7.29612e+07, -7.62288e+07, -7.93463e+07, -8.23058e+07, -8.50994e+07, -8.77195e+07, -9.01583e+07, -9.24085e+07, -9.44628e+07, -9.63141e+07, -9.79556e+07, -9.93806e+07, -1.00583e+08, -1.01557e+08, -1.02296e+08, -1.02796e+08, -1.03052e+08, -1.03059e+08, -1.02814e+08, -1.02314e+08, -1.01557e+08, -1.00539e+08, -9.92616e+07, -9.77227e+07, -9.59232e+07, -9.38644e+07, -9.15484e+07, -8.89782e+07, -8.61578e+07, -8.30921e+07, -7.9787e+07, -7.62494e+07, -7.2487e+07, -6.85088e+07, -6.43245e+07, -5.9945e+07, -5.53818e+07, -5.06476e+07, -4.57559e+07, -4.07209e+07, -3.55575e+07, -3.02815e+07, -2.49091e+07, -1.94572e+07, -1.39428e+07, -8.38368e+06, -2.79756e+06, 2.79756e+06, 8.38368e+06, 1.39428e+07, 1.94572e+07, 2.49091e+07, 3.02815e+07, 3.55575e+07, 4.07209e+07, 4.57559e+07, 5.06476e+07, 5.53818e+07, 5.9945e+07, 6.43245e+07, 6.85088e+07, 7.2487e+07, 7.62494e+07, 7.9787e+07, 8.30921e+07, 8.61578e+07, 8.89782e+07, 9.15484e+07, 9.38644e+07, 9.59232e+07, 9.77227e+07, 9.92616e+07, 1.00539e+08, 1.01557e+08, 1.02314e+08, 1.02814e+08, 1.03059e+08, 1.03052e+08, 1.02796e+08, 1.02296e+08, 1.01557e+08, 1.00583e+08, 9.93806e+07, 9.79556e+07, 9.63141e+07, 9.44628e+07, 9.24085e+07, 9.01583e+07, 8.77195e+07, 8.50994e+07, 8.23058e+07, 7.93463e+07, 7.62288e+07, 7.29612e+07, 6.95514e+07, 6.60076e+07, 6.23378e+07, 5.85502e+07, 5.46528e+07, 5.06538e+07, 4.65614e+07, 4.23838e+07, 3.8129e+07, 3.38053e+07, 2.94208e+07, 2.49836e+07, 2.05018e+07, 1.59836e+07, 1.14371e+07, 6.87036e+06, 2.29147e+06
-2.3198e+06, -6.95537e+06, -1.15788e+07, -1.6182e+07, -2.07569e+07, -2.52954e+07, -2.97893e+07, -3.42306e+07, -3.8611e+07, -4.29225e+07, -4.71568e+07, -5.13058e+07, -5.53613e+07, -5.9315e+07, -6.31587e+07, -6.68844e+07, -7.04836e+07, -7.39484e+07, -7.72705e+07, -8.04419e+07, -8.34545e+07, -8.63003e+07, -8.89714e+07, -9.14602e+07, -9.37589e+07, -9.58602e+07, -9.77567e+07, -9.94413e+07, -1.00907e+08, -1.02148e+08, -1.03158e+08, -1.0393e+08, -1.0446e+08, -1.04742e+08, -1.04771e+08, -1.04545e+08, -1.04059e+08, -1.03311e+08, -1.02299e+08, -1.0102e+08, -9.94757e+07, -9.76649e+07, -9.5589e+07, -9.32499e+07, -9.06507e+07, -8.77949e+07, -8.46876e+07, -8.13346e+07, -7.77426e+07, -7.39196e+07, -6.98746e+07, -6.56174e+07, -6.1159e+07, -5.65114e+07, -5.16874e+07, -4.67008e+07, -4.15662e+07, -3.62991e+07, -3.09156e+07, -2.54325e+07, -1.98671e+07, -1.42372e+07, -8.5609e+06, -2.85674e+06, 2.85674e+06, 8.5609e+06, 1.42372e+07, 1.98671e+07, 2.54325e+07, 3.09156e+07, 3.62991e+07, 4.15662e+07, 4.67008e+07, 5.16874e+07, 5.65114e+07, 6.1159e+07, 6.56174e+07, 6.98746e+07, 7.39196e+07, 7.77426e+07, 8.13346e+07, 8.46876e+07, 8.77949e+07, 9.06507e+07, 9.32499e+07, 9.5589e+07, 9.76649e+07, 9.94757e+07, 1.0102e+08, 1.02299e+08, 1.03311e+08, 1.04059e+08, 1.04545e+08, 1.04771e+08, 1.04742e+08, 1.0446e+08, 1.0393e+08, 1.03158e+08, 1.02148e+08, 1.00907e+08, 9.94413e+07, 9.77567e+07, 9.58602e+07, 9.37589e+07, 9.14602e+07, 8.89714e+07, 8.63003e+07, 8.34545e+07, 8.04419e+07, 7.72705e+07, 7.39484e+07, 7.04836e+07, 6.68844e+07, 6.31587e+07, 5.9315e+07, 5.53613e+07, 5.13058e+07, 4.71568e+07, 4.29225e+07, 3.8611e+07, 3.42306e+07, 2.97893e+07, 2.52954e+07, 2.07569e+07, 1.6182e+07, 1.15788e+07, 6.95537e+06, 2.3198e+06
-2.35218e+06, -7.05251e+06, -1.17407e+07, -1.64087e+07, -2.10484e+07, -2.56518e+07, -3.02106e+07, -3.47167e+07, -3.91621e+07, -4.35384e+07, -4.78376e+07, -5.20514e+07, -5.61715e+07, -6.01897e+07, -6.40978e+07, -6.78874e+07, -7.15504e+07, -7.50783e+07, -7.8463e+07, -8.16962e+07, -8.47699e+07, -8.76757e+07, -9.04058e+07, -9.29521e+07, -9.53068e+07, -9.74623e+07, -9.9411e+07, -1.01146e+08, -1.02659e+08, -1.03945e+08, -1.04996e+08, -1.05807e+08, -1.06371e+08, -1.06684e+08, -1.0674e+08, -1.06535e+08, -1.06066e+08, -1.0533e+08, -1.04323e+08, -1.03045e+08, -1.01495e+08, -9.96716e+07, -9.75767e+07, -9.52118e+07, -9.25795e+07, -8.96837e+07, -8.65289e+07, -8.3121e+07, -7.94668e+07, -7.55743e+07, -7.14525e+07, -6.71114e+07, -6.25623e+07, -5.78174e+07, -5.28897e+07, -4.77936e+07, -4.25441e+07, -3.71572e+07, -3.16494e+07, -2.60382e+07, -2.03415e+07, -1.45778e+07, -8.76604e+06, -2.92524e+06, 2.92524e+06, 8.76604e+06, 1.45778e+07, 2.03415e+07, 2.60382e+07, 3.16494e+07, 3.71572e+07, 4.25441e+07, 4.77936e+07, 5.28897e+07, 5.78174e+07, 6.25623e+07, 6.71114e+07, 7.14525e+07, 7.55743e+07, 7.94668e+07, 8.3121e+07, 8.65289e+07, 8.96837e+07, 9.25795e+07, 9.52118e+07, 9.75767e+07, 9.96716e+07, 1.01495e+08, 1.03045e+08, 1.04323e+08, 1.0533e+08, 1.06066e+08, 1.06535e+08, 1.0674e+08, 1.06684e+08, 1.06371e+08, 1.05807e+08, 1.04996e+08, 1.03945e+08, 1.02659e+08, 1.01146e+08, 9.9411e+07, 9.74623e+07, 9.53068e+07, 9.29521e+07, 9.04058e+07, 8.76757e+07, 8.47699e+07, 8.16962e+07, 7.8463e+07, 7.50783e+07, 7.15504e+07, 6.78874e+07, 6.40978e+07, 6.01897e+07, 5.61715e+07, 5.20514e+07, 4.78376e+07, 4.35384e+07, 3.91621e+07, 3.47167e+07, 3.02106e+07, 2.56518e+07, 2.10484e+07, 1.64087e+07, 1.17407e+07, 7.05251e+06, 2.35218e+06
-2.3886e+06, -7.16176e+06, -1.19228e+07, -1.66637e+07, -2.13764e+07, -2.60526e+07, -3.06845e+07, -3.52637e+07, -3.97821e+07, -4.42315e+07, -4.86038e+07, -5.28906e+07, -5.70836e+07, -6.11747e+07, -6.51553e+07, -6.90172e+07, -7.27521e+07, -7.63514e+07, -7.98069e+07, -8.31102e+07, -8.6253e+07, -8.9227e+07, -9.20238e+07, -9.46355e+07, -9.70539e+07, -9.92712e+07, -1.01279e+08, -1.03071e+08, -1.04639e+08, -1.05976e+08, -1.07075e+08, -1.0793e+08, -1.08534e+08, -1.08882e+08, -1.08969e+08, -1.0879e+08, -1.08341e+08, -1.07619e+08, -1.0662e+08, -1.05343e+08, -1.03786e+08, -1.0195e+08, -9.98344e+07, -9.74409e+07, -9.4772e+07, -9.18313e+07, -8.86233e+07, -8.51537e+07, -8.14294e+07, -7.74584e+07, -7.32496e+07, -6.88136e+07, -6.41615e+07, -5.9306e+07, -5.42606e+07, -4.90399e+07, -4.36595e+07, -3.8136e+07, -3.24865e+07, -2.67293e+07, -2.08829e+07, -1.49667e+07, -9.00017e+06, -3.00343e+06, 3.00343e+06, 9.00017e+06, 1.49667e+07, 2.08829e+07, 2.67293e+07, 3.24865e+07, 3.8136e+07, 4.36595e+07, 4.90399e+07, 5.42606e+07, 5.9306e+07, 6.41615e+07, 6.88136e+07, 7.32496e+07, 7.74584e+07, 8.14294e+07, 8.51537e+07, 8.86233e+07, 9.18313e+07, 9.4772e+07, 9.74409e+07, 9.98344e+07, 1.0195e+08, 1.03786e+08, 1.05343e+08, 1.0662e+08, 1.07619e+08, 1.08341e+08, 1.0879e+08, 1.08969e+08, 1.08882e+08, 1.08534e+08, 1.0793e+08, 1.07075e+08, 1.05976e+08, 1.04639e+08, 1.03071e+08, 1.01279e+08, 9.92712e+07, 9.70539e+07, 9.46355e+07, 9.20238e+07, 8.9227e+07, 8.6253e+07, 8.31102e+07, 7.98069e+07, 7.63514e+07, 7.27521e+07, 6.90172e+07, 6.51553e+07, 6.11747e+07, 5.70836e+07, 5.28906e+07, 4.86038e+07, 4.42315e+07, 3.97821e+07, 3.52637e+07, 3.06845e+07, 2.60526e+07, 2.13764e+07, 1.66637e+07, 1.19228e+07, 7.16176e+06, 2.3886e+06
-2.42905e+06, -7.28311e+06, -1.21251e+07, -1.6947e+07, -2.17406e+07, -2.6498e+07, -3.1211e+07, -3.58714e+07, -4.04711e+07, -4.50018e+07, -4.94554e+07, -5.38235e+07, -5.80978e+07, -6.227e+07, -6.63315e+07, -7.02741e+07, -7.40892e+07, -7.77684e+07, -8.13031e+07, -8.46848e+07, -8.7905e+07, -9.09553e+07, -9.38271e+07, -9.65122e+07, -9.90022e+07, -1.01289e+08, -1.03364e+08, -1.05221e+08, -1.0685e+08, -1.08245e+08, -1.09398e+08, -1.10303e+08, -1.10953e+08, -1.11342e+08, -1.11464e+08, -1.11315e+08, -1.10889e+08, -1.10184e+08, -1.09195e+08, -1.0792e+08, -1.06358e+08, -1.04508e+08, -1.0237e+08, -9.99454e+07, -9.72364e+07, -9.42462e+07, -9.09792e+07, -8.74412e+07, -8.36388e+07, -7.958e+07, -7.52742e+07, -7.07317e+07, -6.59641e+07, -6.09845e+07, -5.58067e+07, -5.04458e+07, -4.49181e+07, -3.92406e+07, -3.34315e+07, -2.75095e+07, -2.14942e+07, -1.54057e+07, -9.26456e+06, -3.09172e+06, 3.09172e+06, 9.26456e+06, 1.54057e+07, 2.14942e+07, 2.75095e+07, 3.34315e+07, 3.92406e+07, 4.49181e+07, 5.04458e+07, 5.58067e+07, 6.09845e+07, 6.59641e+07, 7.07317e+07, 7.52742e+07, 7.958e+07, 8.36388e+07, 8.74412e+07, 9.09792e+07, 9.42462e+07, 9.72364e+07, 9.99454e+07, 1.0237e+08, 1.04508e+08, 1.06358e+08, 1.0792e+08, 1.09195e+08, 1.10184e+08, 1.10889e+08, 1.11315e+08, 1.11464e+08, 1.11342e+08, 1.10953e+08, 1.10303e+08, 1.09398e+08, 1.08245e+08, 1.0685e+08, 1.05221e+08, 1.03364e+08, 1.01289e+08, 9.90022e+07, 9.65122e+07, 9.38271e+07, 9.09553e+07, 8.7905e+07, 8.46848e+07, 8.13031e+07, 7.77684e+07, 7.40892e+07, 7.02741e+07, 6.63315e+07, 6.227e+07, 5.80978e+07, 5.38235e+07, 4.94554e+07, 4.50018e+07, 4.04711e+07, 3.58714e+07, 3.1211e+07, 2.6498e+07, 2.17406e+07, 1.6947e+07, 1.21251e+07, 7.28311e+06, 2.42905e+06
-2.47352e+06, -7.41654e+06, -1.23475e+07, -1.72584e+07, -2.21412e+07, -2.69878e+07, -3.179e+07, -3.65398e+07, -4.1229e+07, -4.58493e+07, -5.03925e+07, -5.48502e+07, -5.92142e+07, -6.34758e+07, -6.76268e+07, -7.16585e+07, -7.55624e+07, -7.93298e+07, -8.29522e+07, -8.64208e+07, -8.97269e+07, -9.2862e+07, -9.58172e+07, -9.8584e+07, -1.01154e+08, -1.03518e+08, -1.05669e+08, -1.07597e+08, -1.09295e+08, -1.10755e+08, -1.1197e+08, -1.12931e+08, -1.13633e+08, -1.14068e+08, -1.14231e+08, -1.14116e+08, -1.13718e+08, -1.13032e+08, -1.12055e+08, -1.10784e+08, -1.09218e+08, -1.07354e+08, -1.05192e+08, -1.02734e+08, -9.99819e+07, -9.69378e+07, -9.36063e+07, -8.9993e+07, -8.61044e+07, -8.19488e+07, -7.75354e+07, -7.28748e+07, -6.79789e+07, -6.28611e+07, -5.75358e+07, -5.20186e+07, -4.63264e+07, -4.0477e+07, -3.44893e+07, -2.83831e+07, -2.21787e+07, -1.58974e+07, -9.56066e+06, -3.1906e+06, 3.1906e+06, 9.56066e+06, 1.58974e+07, 2.21787e+07, 2.83831e+07, 3.44893e+07, 4.0477e+07, 4.63264e+07, 5.20186e+07, 5.75358e+07, 6.28611e+07, 6.79789e+07, 7.28748e+07, 7.75354e+07, 8.19488e+07, 8.61044e+07, 8.9993e+07, 9.36063e+07, 9.69378e+07, 9.99819e+07, 1.02734e+08, 1.05192e+08, 1.07354e+08, 1.09218e+08, 1.10784e+08, 1.12055e+08, 1.13032e+08, 1.13718e+08, 1.14116e+08, 1.14231e+08, 1.14068e+08, 1.13633e+08, 1.12931e+08, 1.1197e+08, 1.10755e+08, 1.09295e+08, 1.07597e+08, 1.05669e+08, 1.03518e+08, 1.01154e+08, 9.8584e+07, 9.58172e+07, 9.2862e+07, 8.97269e+07, 8.64208e+07, 8.29522e+07, 7.93298e+07, 7.55624e+07, 7.16585e+07, 6.76268e+07, 6.34758e+07, 5.92142e+07, 5.48502e+07, 5.03925e+07, 4.58493e+07, 4.1229e+07, 3.65398e+07, 3.179e+07, 2.69878e+07, 2.21412e+07, 1.72584e+07, 1.23475e+07, 7.41654e+06, 2.47352e+06
-2.522e+06, -7.562e+06, -1.259e+07, -1.7598e+07, -2.2578e+07, -2.75218e+07, -3.24215e+07, -3.72689e+07, -4.20558e+07, -4.67739e+07, -5.1415e+07, -5.59708e+07, -6.04327e+07, -6.47924e+07, -6.90413e+07, -7.31707e+07, -7.71719e+07, -8.10363e+07, -8.4755e+07, -8.83192e+07, -9.172e+07, -9.49485e+07, -9.79957e+07, -1.00853e+08, -1.03511e+08, -1.05961e+08, -1.08195e+08, -1.10203e+08, -1.11978e+08, -1.13511e+08, -1.14794e+08, -1.15819e+08, -1.16579e+08, -1.17067e+08, -1.17276e+08, -1.172e+08, -1.16833e+08, -1.16171e+08, -1.1521e+08, -1.13945e+08, -1.12374e+08, -1.10497e+08, -1.08311e+08, -1.05818e+08, -1.03019e+08, -9.99168e+07, -9.65153e+07, -9.28199e+07, -8.88373e+07, -8.45754e+07, -8.00437e+07, -7.52531e+07, -7.02157e+07, -6.49453e+07, -5.94568e+07, -5.37664e+07, -4.78919e+07, -4.18517e+07, -3.56658e+07, -2.93547e+07, -2.29402e+07, -1.64444e+07, -9.89012e+06, -3.30063e+06, 3.30063e+06, 9.89012e+06, 1.64444e+07, 2.29402e+07, 2.93547e+07, 3.56658e+07, 4.18517e+07, 4.78919e+07, 5.37664e+07, 5.94568e+07, 6.49453e+07, 7.02157e+07, 7.52531e+07, 8.00437e+07, 8.45754e+07, 8.88373e+07, 9.28199e+07, 9.65153e+07, 9.99168e+07, 1.03019e+08, 1.05818e+08, 1.08311e+08, 1.10497e+08, 1.12374e+08, 1.13945e+08, 1.1521e+08, 1.16171e+08, 1.16833e+08, 1.172e+08, 1.17276e+08, 1.17067e+08, 1.16579e+08, 1.15819e+08, 1.14794e+08, 1.13511e+08, 1.11978e+08, 1.10203e+08, 1.08195e+08, 1.05961e+08, 1.03511e+08, 1.00853e+08, 9.79957e+07, 9.49485e+07, 9.172e+07, 8.83192e+07, 8.4755e+07, 8.10363e+07, 7.71719e+07, 7.31707e+07, 6.90413e+07, 6.47924e+07, 6.04327e+07, 5.59708e+07, 5.1415e+07, 4.67739e+07, 4.20558e+07, 3.72689e+07, 3.24215e+07, 2.75218e+07, 2.2578e+07, 1.7598e+07, 1.259e+07, 7.562e+06, 2.522e+06
-2.57448e+06, -7.71946e+06, -1.28525e+07, -1.79656e+07, -2.30508e+07, -2.81001e+07, -3.31054e+07, -3.80585e+07, -4.29513e+07, -4.77755e+07, -5.2523e+07, -5.71851e+07, -6.17536e+07, -6.62198e+07, -7.05752e+07, -7.4811e+07, -7.89184e+07, -8.28885e+07, -8.67124e+07, -9.03811e+07, -9.38854e+07, -9.72162e+07, -1.00364e+08, -1.03321e+08, -1.06076e+08, -1.08621e+08, -1.10946e+08, -1.13044e+08, -1.14903e+08, -1.16517e+08, -1.17876e+08, -1.18973e+08, -1.19798e+08, -1.20345e+08, -1.20606e+08, -1.20575e+08, -1.20244e+08, -1.1961e+08, -1.18667e+08, -1.17411e+08, -1.15838e+08, -1.13948e+08, -1.11737e+08, -1.09208e+08, -1.06359e+08, -1.03195e+08, -9.97182e+07, -9.59341e+07, -9.18493e+07, -8.74718e+07, -8.2811e+07, -7.78781e+07, -7.26856e+07, -6.72475e+07, -6.15795e+07, -5.56985e+07, -4.96229e+07, -4.33722e+07, -3.69673e+07, -3.04299e+07, -2.37829e+07, -1.70499e+07, -1.02548e+07, -3.42243e+06, 3.42243e+06, 1.02548e+07, 1.70499e+07, 2.37829e+07, 3.04299e+07, 3.69673e+07, 4.33722e+07, 4.96229e+07, 5.56985e+07, 6.15795e+07, 6.72475e+07, 7.26856e+07, 7.78781e+07, 8.2811e+07, 8.74718e+07, 9.18493e+07, 9.59341e+07, 9.97182e+07, 1.03195e+08, 1.06359e+08, 1.09208e+08, 1.11737e+08, 1.13948e+08, 1.15838e+08, 1.17411e+08, 1.18667e+08, 1.1961e+08, 1.20244e+08, 1.20575e+08, 1.20606e+08, 1.20345e+08, 1.19798e+08, 1.18973e+08, 1.17876e+08, 1.16517e+08, 1.14903e+08, 1.13044e+08, 1.10946e+08, 1.08621e+08, 1.06076e+08, 1.03321e+08, 1.00364e+08, 9.72162e+07, 9.38854e+07, 9.03811e+07, 8.67124e+07, 8.28885e+07, 7.89184e+07, 7.4811e+07, 7.05752e+07, 6.62198e+07, 6.17536e+07, 5.71851e+07, 5.2523e+07, 4.77755e+07, 4.29513e+07, 3.80585e+07, 3.31054e+07, 2.81001e+07, 2.30508e+07, 1.79656e+07, 1.28525e+07, 7.71946e+06, 2.57448e+06
-2.63094e+06, -7.88886e+06, -1.31349e+07, -1.83612e+07, -2.35597e+07, -2.87224e+07, -3.38413e+07, -3.89084e+07, -4.39153e+07, -4.8854e+07, -5.37161e+07, -5.84932e+07, -6.31767e+07, -6.77581e+07, -7.22287e+07, -7.65797e+07, -8.08021e+07, -8.48869e+07, -8.88251e+07, -9.26073e+07, -9.62242e+07, -9.96666e+07, -1.02925e+08, -1.05989e+08, -1.08851e+08, -1.115e+08, -1.13926e+08, -1.16121e+08, -1.18075e+08, -1.19778e+08, -1.21222e+08, -1.22397e+08, -1.23295e+08, -1.23908e+08, -1.24228e+08, -1.24248e+08, -1.2396e+08, -1.23358e+08, -1.22437e+08, -1.21193e+08, -1.19621e+08, -1.17718e+08, -1.15483e+08, -1.12916e+08, -1.10016e+08, -1.06785e+08, -1.03228e+08, -9.9349e+07, -9.51541e+07, -9.06513e+07, -8.58505e+07, -8.07627e+07, -7.5401e+07, -6.97798e+07, -6.39153e+07, -5.78253e+07, -5.1529e+07, -4.50469e+07, -3.84012e+07, -3.16147e+07, -2.47118e+07, -1.77173e+07, -1.06569e+07, -3.55671e+06, 3.55671e+06, 1.06569e+07, 1.77173e+07, 2.47118e+07, 3.16147e+07, 3.84012e+07, 4.50469e+07, 5.1529e+07, 5.78253e+07, 6.39153e+07, 6.97798e+07, 7.5401e+07, 8.07627e+07, 8.58505e+07, 9.06513e+07, 9.51541e+07, 9.9349e+07, 1.03228e+08, 1.06785e+08, 1.10016e+08, 1.12916e+08, 1.15483e+08, 1.17718e+08, 1.19621e+08, 1.21193e+08, 1.22437e+08, 1.23358e+08, 1.2396e+08, 1.24248e+08, 1.24228e+08, 1.23908e+08, 1.23295e+08, 1.22397e+08, 1.21222e+08, 1.19778e+08, 1.18075e+08, 1.16121e+08, 1.13926e+08, 1.115e+08, 1.08851e+08, 1.05989e+08, 1.02925e+08, 9.96666e+07, 9.62242e+07, 9.26073e+07, 8.88251e+07, 8.48869e+07, 8.08021e+07, 7.65797e+07, 7.22287e+07, 6.77581e+07, 6.31767e+07, 5.84932e+07, 5.37161e+07, 4.8854e+07, 4.39153e+07, 3.89084e+07, 3.38413e+07, 2.87224e+07, 2.35597e+07, 1.83612e+07, 1.31349e+07, 7.88886e+06, 2.63094e+06
-2.69135e+06, -8.07013e+06, -1.34371e+07, -1.87845e+07, -2.41042e+07, -2.93885e+07, -3.46292e+07, -3.98183e+07, -4.49477e+07, -5.00091e+07, -5.49943e+07, -5.98947e+07, -6.47019e+07, -6.94072e+07, -7.40019e+07, -7.84769e+07, -8.28234e+07, -8.7032e+07, -9.10936e+07, -9.49987e+07, -9.87378e+07, -1.02301e+08, -1.05679e+08, -1.08862e+08, -1.11839e+08, -1.14601e+08, -1.17138e+08, -1.1944e+08, -1.21496e+08, -1.23298e+08, -1.24835e+08, -1.26098e+08, -1.27078e+08, -1.27765e+08, -1.28151e+08, -1.28228e+08, -1.27989e+08, -1.27425e+08, -1.26532e+08, -1.25303e+08, -1.23734e+08, -1.21821e+08, -1.19562e+08, -1.16956e+08, -1.14002e+08, -1.10703e+08, -1.07061e+08, -1.0308e+08, -9.87666e+07, -9.41291e+07, -8.91769e+07, -8.39213e+07, -7.83758e+07, -7.25553e+07, -6.64766e+07, -6.01584e+07, -5.36207e+07, -4.68854e+07, -3.99757e+07, -3.29161e+07, -2.57322e+07, -1.84506e+07, -1.10986e+07, -3.70427e+06, 3.70427e+06, 1.10986e+07, 1.84506e+07, 2.57322e+07, 3.29161e+07, 3.99757e+07, 4.68854e+07, 5.36207e+07, 6.01584e+07, 6.64766e+07, 7.25553e+07, 7.83758e+07, 8.39213e+07, 8.91769e+07, 9.41291e+07, 9.87666e+07, 1.0308e+08, 1.07061e+08, 1.10703e+08, 1.14002e+08, 1.16956e+08, 1.19562e+08, 1.21821e+08, 1.23734e+08, 1.25303e+08, 1.26532e+08, 1.27425e+08, 1.27989e+08, 1.28228e+08, 1.28151e+08, 1.27765e+08, 1.27078e+08, 1.26098e+08, 1.24835e+08, 1.23298e+08, 1.21496e+08, 1.1944e+08, 1.17138e+08, 1.14601e+08, 1.11839e+08, 1.08862e+08, 1.05679e+08, 1.02301e+08, 9.87378e+07, 9.49987e+07, 9.10936e+07, 8.7032e+07, 8.28234e+07, 7.84769e+07, 7.40019e+07, 6.94072e+07, 6.47019e+07, 5.98947e+07, 5.49943e+07, 5.00091e+07, 4.49477e+07, 3.98183e+07, 3.46292e+07, 2.93885e+07, 2.41042e+07, 1.87845e+07, 1.34371e+07, 8.07013e+06, 2.69135e+06
-2.75569e+06, -8.26319e+06, -1.3759e+07, -1.92353e+07, -2.46843e+07, -3.00981e+07, -3.54686e+07, -4.0788e+07, -4.6048e+07, -5.12405e+07, -5.63571e+07, -6.13895e+07, -6.6329e+07, -7.1167e+07, -7.58946e+07, -8.05028e+07, -8.49824e+07, -8.93242e+07, -9.35187e+07, -9.75562e+07, -1.01427e+08, -1.05121e+08, -1.08628e+08, -1.11939e+08, -1.15042e+08, -1.17927e+08, -1.20585e+08, -1.23003e+08, -1.25173e+08, -1.27083e+08, -1.28723e+08, -1.30083e+08, -1.31153e+08, -1.31923e+08, -1.32383e+08, -1.32526e+08, -1.32341e+08, -1.31822e+08, -1.30962e+08, -1.29753e+08, -1.2819e+08, -1.2627e+08, -1.23988e+08, -1.21344e+08, -1.18335e+08, -1.14963e+08, -1.11231e+08, -1.07143e+08, -1.02703e+08, -9.79215e+07, -9.28065e+07, -8.737e+07, -8.16256e+07, -7.55889e+07, -6.92775e+07, -6.27108e+07, -5.59101e+07, -4.88983e+07, -4.17002e+07, -3.43417e+07, -2.68503e+07, -1.92542e+07, -1.15828e+07, -3.86601e+06, 3.86601e+06, 1.15828e+07, 1.92542e+07, 2.68503e+07, 3.43417e+07, 4.17002e+07, 4.88983e+07, 5.59101e+07, 6.27108e+07, 6.92775e+07, 7.55889e+07, 8.16256e+07, 8.737e+07, 9.28065e+07, 9.79215e+07, 1.02703e+08, 1.07143e+08, 1.11231e+08, 1.14963e+08, 1.18335e+08, 1.21344e+08, 1.23988e+08, 1.2627e+08, 1.2819e+08, 1.29753e+08, 1.30962e+08, 1.31822e+08, 1.32341e+08, 1.32526e+08, 1.32383e+08, 1.31923e+08, 1.31153e+08, 1.30083e+08, 1.28723e+08, 1.27083e+08, 1.25173e+08, 1.23003e+08, 1.20585e+08, 1.17927e+08, 1.15042e+08, 1.11939e+08, 1.08628e+08, 1.05121e+08, 1.01427e+08, 9.75562e+07, 9.35187e+07, 8.93242e+07, 8.49824e+07, 8.05028e+07, 7.58946e+07, 7.1167e+07, 6.6329e+07, 6.13895e+07, 5.63571e+07, 5.12405e+07, 4.6048e+07, 4.0788e+07, 3.54686e+07, 3.00981e+07, 2.46843e+07, 1.92353e+07, 1.3759e+07, 8.26319e+06, 2.75569e+06
-2.82393e+06, -8.46793e+06, -1.41004e+07, -1.97135e+07, -2.52996e+07, -3.08508e+07, -3.63593e+07, -4.1817e+07, -4.72158e+07, -5.25477e+07, -5.78043e+07, -6.29772e+07, -6.80577e+07, -7.30372e+07, -7.79067e+07, -8.26572e+07, -8.72794e+07, -9.17637e+07, -9.61007e+07, -1.0028e+08, -1.04293e+08, -1.08128e+08, -1.11775e+08, -1.15223e+08, -1.18463e+08, -1.21482e+08, -1.2427e+08, -1.26816e+08, -1.29109e+08, -1.31138e+08, -1.32891e+08, -1.34358e+08, -1.35528e+08, -1.3639e+08, -1.36934e+08, -1.3715e+08, -1.37029e+08, -1.36561e+08, -1.35739e+08, -1.34556e+08, -1.33005e+08, -1.3108e+08, -1.28778e+08, -1.26095e+08, -1.23031e+08, -1.19584e+08, -1.15758e+08, -1.11556e+08, -1.06983e+08, -1.02047e+08, -9.67576e+07, -9.11265e+07, -8.51677e+07, -7.88974e+07, -7.23337e+07, -6.54973e+07, -5.84105e+07, -5.10976e+07, -4.3585e+07, -3.59004e+07, -2.8073e+07, -2.01332e+07, -1.21125e+07, -4.04294e+06, 4.04294e+06, 1.21125e+07, 2.01332e+07, 2.8073e+07, 3.59004e+07, 4.3585e+07, 5.10976e+07, 5.84105e+07, 6.54973e+07, 7.23337e+07, 7.88974e+07, 8.51677e+07, 9.11265e+07, 9.67576e+07, 1.02047e+08, 1.06983e+08, 1.11556e+08, 1.15758e+08, 1.19584e+08, 1.23031e+08, 1.26095e+08, 1.28778e+08, 1.3108e+08, 1.33005e+08, 1.34556e+08, 1.35739e+08, 1.36561e+08, 1.37029e+08, 1.3715e+08, 1.36934e+08, 1.3639e+08, 1.35528e+08, 1.34358e+08, 1.32891e+08, 1.31138e+08, 1.29109e+08, 1.26816e+08, 1.2427e+08, 1.21482e+08, 1.18463e+08, 1.15223e+08, 1.11775e+08, 1.08128e+08, 1.04293e+08, 1.0028e+08, 9.61007e+07, 9.17637e+07, 8.72794e+07, 8.26572e+07, 7.79067e+07, 7.30372e+07, 6.80577e+07, 6.29772e+07, 5.78043e+07, 5.25477e+07, 4.72158e+07, 4.1817e+07, 3.63593e+07, 3.08508e+07, 2.52996e+07, 1.97135e+07, 1.41004e+07, 8.46793e+06, 2.82393e+06
-2.89601e+06, -8.68423e+06, -1.4461e+07, -2.02188e+07, -2.59498e+07, -3.16464e+07, -3.73007e+07, -4.29048e+07, -4.84507e+07, -5.39302e+07, -5.93352e+07, -6.46571e+07, -6.98874e+07, -7.50173e+07, -8.00379e+07, -8.49399e+07, -8.9714e+07, -9.43507e+07, -9.884e+07, -1.03172e+08, -1.07336e+08, -1.11322e+08, -1.1512e+08, -1.18717e+08, -1.22103e+08, -1.25267e+08, -1.28198e+08, -1.30882e+08, -1.3331e+08, -1.35468e+08, -1.37345e+08, -1.3893e+08, -1.4021e+08, -1.41175e+08, -1.41812e+08, -1.42111e+08, -1.42062e+08, -1.41654e+08, -1.40879e+08, -1.39728e+08, -1.38193e+08, -1.36268e+08, -1.33948e+08, -1.31229e+08, -1.28108e+08, -1.24585e+08, -1.20662e+08, -1.1634e+08, -1.11626e+08, -1.06526e+08, -1.0105e+08, -9.52107e+07, -8.90214e+07, -8.2499e+07, -7.56628e+07, -6.85341e+07, -6.11368e+07, -5.34968e+07, -4.56418e+07, -3.76018e+07, -2.9408e+07, -2.10931e+07, -1.2691e+07, -4.23621e+06, 4.23621e+06, 1.2691e+07, 2.10931e+07, 2.9408e+07, 3.76018e+07, 4.56418e+07, 5.34968e+07, 6.11368e+07, 6.85341e+07, 7.56628e+07, 8.2499e+07, 8.90214e+07, 9.52107e+07, 1.0105e+08, 1.06526e+08, 1.11626e+08, 1.1634e+08, 1.20662e+08, 1.24585e+08, 1.28108e+08, 1.31229e+08, 1.33948e+08, 1.36268e+08, 1.38193e+08, 1.39728e+08, 1.40879e+08, 1.41654e+08, 1.42062e+08, 1.42111e+08, 1.41812e+08, 1.41175e+08, 1.4021e+08, 1.3893e+08, 1.37345e+08, 1.35468e+08, 1.3331e+08, 1.30882e+08, 1.28198e+08, 1.25267e+08, 1.22103e+08, 1.18717e+08, 1.1512e+08, 1.11322e+08, 1.07336e+08, 1.03172e+08, 9.884e+07, 9.43507e+07, 8.9714e+07, 8.49399e+07, 8.00379e+07, 7.50173e+07, 6.98874e+07, 6.46571e+07, 5.93352e+07, 5.39302e+07, 4.84507e+07, 4.29048e+07, 3.73007e+07, 3.16464e+07, 2.59498e+07, 2.02188e+07, 1.4461e+07, 8.68423e+06, 2.89601e+06
-2.9719e+06, -8.91195e+06, -1.48408e+07, -2.07508e+07, -2.66345e+07, -3.24842e+07, -3.82923e+07, -4.40508e+07, -4.97518e+07, -5.53873e+07, -6.09491e+07, -6.64287e+07, -7.18175e+07, -7.71068e+07, -8.22876e+07, -8.73505e+07, -9.22862e+07, -9.70849e+07, -1.01737e+08, -1.06231e+08, -1.10558e+08, -1.14706e+08, -1.18664e+08, -1.22422e+08, -1.25967e+08, -1.29287e+08, -1.32371e+08, -1.35205e+08, -1.37779e+08, -1.40079e+08, -1.42092e+08, -1.43806e+08, -1.45209e+08, -1.46287e+08, -1.47028e+08, -1.47421e+08, -1.47454e+08, -1.47115e+08, -1.46395e+08, -1.45283e+08, -1.43771e+08, -1.41851e+08, -1.39517e+08, -1.36763e+08, -1.33587e+08, -1.29987e+08, -1.25963e+08, -1.21517e+08, -1.16654e+08, -1.11381e+08, -1.05707e+08, -9.96447e+07, -9.3208e+07, -8.64145e+07, -7.92842e+07, -7.18397e+07, -6.4106e+07, -5.61107e+07, -4.78838e+07, -3.9457e+07, -3.08641e+07, -2.21403e+07, -1.33222e+07, -4.44709e+06, 4.44709e+06, 1.33222e+07, 2.21403e+07, 3.08641e+07, 3.9457e+07, 4.78838e+07, 5.61107e+07, 6.4106e+07, 7.18397e+07, 7.92842e+07, 8.64145e+07, 9.3208e+07, 9.96447e+07, 1.05707e+08, 1.11381e+08, 1.16654e+08, 1.21517e+08, 1.25963e+08, 1.29987e+08, 1.33587e+08, 1.36763e+08, 1.39517e+08, 1.41851e+08, 1.43771e+08, 1.45283e+08, 1.46395e+08, 1.47115e+08, 1.47454e+08, 1.47421e+08, 1.47028e+08, 1.46287e+08, 1.45209e+08, 1.43806e+08, 1.42092e+08, 1.40079e+08, 1.37779e+08, 1.35205e+08, 1.32371e+08, 1.29287e+08, 1.25967e+08, 1.22422e+08, 1.18664e+08, 1.14706e+08, 1.10558e+08, 1.06231e+08, 1.01737e+08, 9.70849e+07, 9.22862e+07, 8.73505e+07, 8.22876e+07, 7.71068e+07, 7.18175e+07, 6.64287e+07, 6.09491e+07, 5.53873e+07, 4.97518e+07, 4.40508e+07, 3.82923e+07, 3.24842e+07, 2.66345e+07, 2.07508e+07, 1.48408e+07, 8.91195e+06, 2.9719e+06
-3.05153e+06, -9.15091e+06, -1.52392e+07, -2.13091e+07, -2.73532e+07, -3.33638e+07, -3.93334e+07, -4.52542e+07, -5.11185e+07, -5.69182e+07, -6.26452e+07, -6.8291e+07, -7.38472e+07, -7.93049e+07, -8.4655e+07, -8.98884e+07, -9.49954e+07, -9.99662e+07, -1.04791e+08, -1.09458e+08, -1.13958e+08, -1.18279e+08, -1.2241e+08, -1.26339e+08, -1.30054e+08, -1.33543e+08, -1.36792e+08, -1.3979e+08, -1.42522e+08, -1.44976e+08, -1.47138e+08, -1.48994e+08, -1.50531e+08, -1.51735e+08, -1.52593e+08, -1.53091e+08, -1.53217e+08, -1.52958e+08, -1.52302e+08, -1.51238e+08, -1.49756e+08, -1.47848e+08, -1.45505e+08, -1.42721e+08, -1.39491e+08, -1.35813e+08, -1.31686e+08, -1.27111e+08, -1.22092e+08, -1.16637e+08, -1.10753e+08, -1.04453e+08, -9.77515e+07, -9.06669e+07, -8.32199e+07, -7.54343e+07, -6.73366e+07, -5.89564e+07, -5.03255e+07, -4.14783e+07, -3.2451e+07, -2.32819e+07, -1.40104e+07, -4.67702e+06, 4.67702e+06, 1.40104e+07, 2.32819e+07, 3.2451e+07, 4.14783e+07, 5.03255e+07, 5.89564e+07, 6.73366e+07, 7.54343e+07, 8.32199e+07, 9.06669e+07, 9.77515e+07, 1.04453e+08, 1.10753e+08, 1.16637e+08, 1.22092e+08, 1.27111e+08, 1.31686e+08, 1.35813e+08, 1.39491e+08, 1.42721e+08, 1.45505e+08, 1.47848e+08, 1.49756e+08, 1.51238e+08, 1.52302e+08, 1.52958e+08, 1.53217e+08, 1.53091e+08, 1.52593e+08, 1.51735e+08, 1.50531e+08, 1.48994e+08, 1.47138e+08, 1.44976e+08, 1.42522e+08, 1.3979e+08, 1.36792e+08, 1.33543e+08, 1.30054e+08, 1.26339e+08, 1.2241e+08, 1.18279e+08, 1.13958e+08, 1.09458e+08, 1.04791e+08, 9.99662e+07, 9.49954e+07, 8.98884e+07, 8.4655e+07, 7.93049e+07, 7.38472e+07, 6.8291e+07, 6.26452e+07, 5.69182e+07, 5.11185e+07, 4.52542e+07, 3.93334e+07, 3.33638e+07, 2.73532e+07, 2.13091e+07, 1.52392e+07, 9.15091e+06, 3.05153e+06
-3.13484e+06, -9.40091e+06, -1.56562e+07, -2.18934e+07, -2.81052e+07, -3.42843e+07, -4.04232e+07, -4.65143e+07, -5.25498e+07, -5.85219e+07, -6.44224e+07, -7.0243e+07, -7.59753e+07, -8.16104e+07, -8.71393e+07, -9.25527e+07, -9.78408e+07, -1.02994e+08, -1.08001e+08, -1.12853e+08, -1.17537e+08, -1.22043e+08, -1.26358e+08, -1.3047e+08, -1.34368e+08, -1.38038e+08, -1.41466e+08, -1.4464e+08, -1.47544e+08, -1.50166e+08, -1.5249e+08, -1.54502e+08, -1.56187e+08, -1.57531e+08, -1.58518e+08, -1.59134e+08, -1.59365e+08, -1.59197e+08, -1.58616e+08, -1.57611e+08, -1.56169e+08, -1.5428e+08, -1.51934e+08, -1.49124e+08, -1.45843e+08, -1.42088e+08, -1.37856e+08, -1.33149e+08, -1.27968e+08, -1.2232e+08, -1.16214e+08, -1.09662e+08, -1.02678e+08, -9.52818e+07, -8.74943e+07, -7.93409e+07, -7.08499e+07, -6.20527e+07, -5.29836e+07, -4.36795e+07, -3.41799e+07, -2.45258e+07, -1.47604e+07, -4.92764e+06, 4.92764e+06, 1.47604e+07, 2.45258e+07, 3.41799e+07, 4.36795e+07, 5.29836e+07, 6.20527e+07, 7.08499e+07, 7.93409e+07, 8.74943e+07, 9.52818e+07, 1.02678e+08, 1.09662e+08, 1.16214e+08, 1.2232e+08, 1.27968e+08, 1.33149e+08, 1.37856e+08, 1.42088e+08, 1.45843e+08, 1.49124e+08, 1.51934e+08, 1.5428e+08, 1.56169e+08, 1.57611e+08, 1.58616e+08, 1.59197e+08, 1.59365e+08, 1.59134e+08, 1.58518e+08, 1.57531e+08, 1.56187e+08, 1.54502e+08, 1.5249e+08, 1.50166e+08, 1.47544e+08, 1.4464e+08, 1.41466e+08, 1.38038e+08, 1.34368e+08, 1.3047e+08, 1.26358e+08, 1.22043e+08, 1.17537e+08, 1.12853e+08, 1.08001e+08, 1.02994e+08, 9.78408e+07, 9.25527e+07, 8.71393e+07, 8.16104e+07, 7.59753e+07, 7.0243e+07, 6.44224e+07, 5.85219e+07, 5.25498e+07, 4.65143e+07, 4.04232e+07, 3.42843e+07, 2.81052e+07, 2.18934e+07, 1.56562e+07, 9.40091e+06, 3.13484e+06
-3.22174e+06, -9.66172e+06, -1.60911e+07, -2.25029e+07, -2.889e+07, -3.52451e+07, -4.15608e+07, -4.78299e+07, -5.40445e+07, -6.0197e+07, -6.62794e+07, -7.22834e+07, -7.82006e+07, -8.40222e+07, -8.97391e+07, -9.53421e+07, -1.00821e+08, -1.06167e+08, -1.11368e+08, -1.16414e+08, -1.21294e+08, -1.25996e+08, -1.30508e+08, -1.34817e+08, -1.3891e+08, -1.42774e+08, -1.46395e+08, -1.49758e+08, -1.52849e+08, -1.55653e+08, -1.58154e+08, -1.60336e+08, -1.62184e+08, -1.63682e+08, -1.64813e+08, -1.65562e+08, -1.65912e+08, -1.65848e+08, -1.65356e+08, -1.64421e+08, -1.63029e+08, -1.61168e+08, -1.58827e+08, -1.55997e+08, -1.5267e+08, -1.48839e+08, -1.44503e+08, -1.39659e+08, -1.34311e+08, -1.28462e+08, -1.22122e+08, -1.15302e+08, -1.08018e+08, -1.00288e+08, -9.21346e+07, -8.35852e+07, -7.46694e+07, -6.5421e+07, -5.58767e+07, -4.60765e+07, -3.6063e+07, -2.58812e+07, -1.55777e+07, -5.20078e+06, 5.20078e+06, 1.55777e+07, 2.58812e+07, 3.6063e+07, 4.60765e+07, 5.58767e+07, 6.5421e+07, 7.46694e+07, 8.35852e+07, 9.21346e+07, 1.00288e+08, 1.08018e+08, 1.15302e+08, 1.22122e+08, 1.28462e+08, 1.34311e+08, 1.39659e+08, 1.44503e+08, 1.48839e+08, 1.5267e+08, 1.55997e+08, 1.58827e+08, 1.61168e+08, 1.63029e+08, 1.64421e+08, 1.65356e+08, 1.65848e+08, 1.65912e+08, 1.65562e+08, 1.64813e+08, 1.63682e+08, 1.62184e+08, 1.60336e+08, 1.58154e+08, 1.55653e+08, 1.52849e+08, 1.49758e+08, 1.46395e+08, 1.42774e+08, 1.3891e+08, 1.34817e+08, 1.30508e+08, 1.25996e+08, 1.21294e+08, 1.16414e+08, 1.11368e+08, 1.06167e+08, 1.00821e+08, 9.53421e+07, 8.97391e+07, 8.40222e+07, 7.82006e+07, 7.22834e+07, 6.62794e+07, 6.0197e+07, 5.40445e+07, 4.78299e+07, 4.15608e+07, 3.52451e+07, 2.889e+07, 2.25029e+07, 1.60911e+07, 9.66172e+06, 3.22174e+06
-3.31217e+06, -9.93308e+06, -1.65437e+07, -2.31373e+07, -2.97068e+07, -3.62451e+07, -4.27452e+07, -4.91998e+07, -5.56014e+07, -6.19424e+07, -6.82148e+07, -7.44107e+07, -8.05215e+07, -8.65386e+07, -9.2453e+07, -9.82553e+07, -1.03936e+08, -1.09484e+08, -1.1489e+08, -1.20143e+08, -1.2523e+08, -1.3014e+08, -1.34861e+08, -1.39379e+08, -1.43681e+08, -1.47754e+08, -1.51581e+08, -1.55149e+08, -1.58441e+08, -1.61443e+08, -1.64136e+08, -1.66505e+08, -1.68532e+08, -1.702e+08, -1.71491e+08, -1.72388e+08, -1.72873e+08, -1.72929e+08, -1.72539e+08, -1.71687e+08, -1.70357e+08, -1.68536e+08, -1.6621e+08, -1.63367e+08, -1.59999e+08, -1.56097e+08, -1.51656e+08, -1.46675e+08, -1.41154e+08, -1.35096e+08, -1.2851e+08, -1.21407e+08, -1.13803e+08, -1.05716e+08, -9.71713e+07, -8.81957e+07, -7.88216e+07, -6.9085e+07, -5.90256e+07, -4.86867e+07, -3.81145e+07, -2.73582e+07, -1.64686e+07, -5.49852e+06, 5.49852e+06, 1.64686e+07, 2.73582e+07, 3.81145e+07, 4.86867e+07, 5.90256e+07, 6.9085e+07, 7.88216e+07, 8.81957e+07, 9.71713e+07, 1.05716e+08, 1.13803e+08, 1.21407e+08, 1.2851e+08, 1.35096e+08, 1.41154e+08, 1.46675e+08, 1.51656e+08, 1.56097e+08, 1.59999e+08, 1.63367e+08, 1.6621e+08, 1.68536e+08, 1.70357e+08, 1.71687e+08, 1.72539e+08, 1.72929e+08, 1.72873e+08, 1.72388e+08, 1.71491e+08, 1.702e+08, 1.68532e+08, 1.66505e+08, 1.64136e+08, 1.61443e+08, 1.58441e+08, 1.55149e+08, 1.51581e+08, 1.47754e+08, 1.43681e+08, 1.39379e+08, 1.34861e+08, 1.3014e+08, 1.2523e+08, 1.20143e+08, 1.1489e+08, 1.09484e+08, 1.03936e+08, 9.82553e+07, 9.2453e+07, 8.65386e+07, 8.05215e+07, 7.44107e+07, 6.82148e+07, 6.19424e+07, 5.56014e+07, 4.91998e+07, 4.27452e+07, 3.62451e+07, 2.97068e+07, 2.31373e+07, 1.65437e+07, 9.93308e+06, 3.31217e+06
-3.406e+06, -1.02147e+07, -1.70135e+07, -2.37957e+07, -3.05546e+07, -3.72834e+07, -4.39752e+07, -5.06228e+07, -5.7219e+07, -6.37562e+07, -7.02269e+07, -7.66229e+07, -8.2936e+07, -8.91577e+07, -9.52789e+07, -1.0129e+08, -1.07182e+08, -1.12944e+08, -1.18566e+08, -1.24036e+08, -1.29342e+08, -1.34474e+08, -1.39416e+08, -1.44157e+08, -1.48683e+08, -1.52978e+08, -1.57027e+08, -1.60815e+08, -1.64325e+08, -1.6754e+08, -1.70443e+08, -1.73015e+08, -1.75239e+08, -1.77095e+08, -1.78563e+08, -1.79626e+08, -1.80263e+08, -1.80455e+08, -1.80184e+08, -1.79431e+08, -1.78178e+08, -1.76409e+08, -1.74109e+08, -1.71264e+08, -1.67862e+08, -1.63893e+08, -1.59351e+08, -1.54231e+08, -1.48532e+08, -1.42258e+08, -1.35415e+08, -1.28014e+08, -1.2007e+08, -1.11603e+08, -1.02639e+08, -9.32048e+07, -8.33364e+07, -7.30718e+07, -6.24541e+07, -5.15301e+07, -4.03503e+07, -2.89683e+07, -1.744e+07, -5.82321e+06, 5.82321e+06, 1.744e+07, 2.89683e+07, 4.03503e+07, 5.15301e+07, 6.24541e+07, 7.30718e+07, 8.33364e+07, 9.32048e+07, 1.02639e+08, 1.11603e+08, 1.2007e+08, 1.28014e+08, 1.35415e+08, 1.42258e+08, 1.48532e+08, 1.54231e+08, 1.59351e+08, 1.63893e+08, 1.67862e+08, 1.71264e+08, 1.74109e+08, 1.76409e+08, 1.78178e+08, 1.79431e+08, 1.80184e+08, 1.80455e+08, 1.80263e+08, 1.79626e+08, 1.78563e+08, 1.77095e+08, 1.75239e+08, 1.73015e+08, 1.70443e+08, 1.6754e+08, 1.64325e+08, 1.60815e+08, 1.57027e+08, 1.52978e+08, 1.48683e+08, 1.44157e+08, 1.39416e+08, 1.34474e+08, 1.29342e+08, 1.24036e+08, 1.18566e+08, 1.12944e+08, 1.07182e+08, 1.0129e+08, 9.52789e+07, 8.91577e+07, 8.2936e+07, 7.66229e+07, 7.02269e+07, 6.37562e+07, 5.7219e+07, 5.06228e+07, 4.39752e+07, 3.72834e+07, 3.05546e+07, 2.37957e+07, 1.70135e+07, 1.02147e+07, 3.406e+06
-3.50313e+06, -1.05062e+07, -1.74998e+07, -2.44774e+07, -3.14326e+07, -3.83588e+07, -4.52493e+07, -5.20971e+07, -5.88954e+07, -6.56367e+07, -7.23135e+07, -7.8918e+07, -8.54421e+07, -9.18772e+07, -9.82146e+07, -1.04445e+08, -1.10558e+08, -1.16544e+08, -1.22393e+08, -1.28092e+08, -1.33631e+08, -1.38995e+08, -1.44174e+08, -1.49151e+08, -1.53914e+08, -1.58447e+08, -1.62734e+08, -1.66759e+08, -1.70503e+08, -1.7395e+08, -1.77081e+08, -1.79875e+08, -1.82314e+08, -1.84376e+08, -1.86042e+08, -1.87289e+08, -1.88097e+08, -1.88445e+08, -1.88311e+08, -1.87674e+08, -1.86515e+08, -1.84814e+08, -1.82553e+08, -1.79717e+08, -1.76291e+08, -1.72263e+08, -1.67623e+08, -1.62365e+08, -1.56487e+08, -1.49989e+08, -1.42878e+08, -1.35163e+08, -1.2686e+08, -1.17989e+08, -1.08575e+08, -9.86487e+07, -8.82472e+07, -7.74118e+07, -6.61888e+07, -5.46293e+07, -4.27883e+07, -3.07247e+07, -1.84999e+07, -6.17752e+06, 6.17752e+06, 1.84999e+07, 3.07247e+07, 4.27883e+07, 5.46293e+07, 6.61888e+07, 7.74118e+07, 8.82472e+07, 9.86487e+07, 1.08575e+08, 1.17989e+08, 1.2686e+08, 1.35163e+08, 1.42878e+08, 1.49989e+08, 1.56487e+08, 1.62365e+08, 1.67623e+08, 1.72263e+08, 1.76291e+08, 1.79717e+08, 1.82553e+08, 1.84814e+08, 1.86515e+08, 1.87674e+08, 1.88311e+08, 1.88445e+08, 1.88097e+08, 1.87289e+08, 1.86042e+08, 1.84376e+08, 1.82314e+08, 1.79875e+08, 1.77081e+08, 1.7395e+08, 1.70503e+08, 1.66759e+08, 1.62734e+08, 1.58447e+08, 1.53914e+08, 1.49151e+08, 1.44174e+08, 1.38995e+08, 1.33631e+08, 1.28092e+08, 1.22393e+08, 1.16544e+08, 1.10558e+08, 1.04445e+08, 9.82146e+07, 9.18772e+07, 8.54421e+07, 7.8918e+07, 7.23135e+07, 6.56367e+07, 5.88954e+07, 5.20971e+07, 4.52493e+07, 3.83588e+07, 3.14326e+07, 2.44774e+07, 1.74998e+07, 1.05062e+07, 3.50313e+06
-3.60344e+06, -1.08073e+07, -1.8002e+07, -2.51815e+07, -3.23396e+07, -3.94699e+07, -4.65659e+07, -5.36212e+07, -6.06288e+07, -6.75816e+07, -7.44725e+07, -8.12936e+07, -8.80371e+07, -9.46946e+07, -1.01257e+08, -1.07716e+08, -1.14061e+08, -1.20283e+08, -1.26369e+08, -1.3231e+08, -1.38092e+08, -1.43704e+08, -1.49131e+08, -1.5436e+08, -1.59376e+08, -1.64163e+08, -1.68704e+08, -1.72983e+08, -1.7698e+08, -1.80677e+08, -1.84054e+08, -1.8709e+08, -1.89764e+08, -1.92055e+08, -1.93938e+08, -1.95392e+08, -1.96393e+08, -1.96916e+08, -1.9694e+08, -1.9644e+08, -1.95393e+08, -1.93778e+08, -1.91574e+08, -1.88761e+08, -1.85323e+08, -1.81244e+08, -1.76513e+08, -1.7112e+08, -1.6506e+08, -1.58334e+08, -1.50945e+08, -1.42901e+08, -1.34219e+08, -1.24917e+08, -1.15022e+08, -1.04568e+08, -9.35921e+07, -8.21394e+07, -7.026e+07, -5.80098e+07, -4.54491e+07, -3.26423e+07, -1.96574e+07, -6.5645e+06, 6.5645e+06, 1.96574e+07, 3.26423e+07, 4.54491e+07, 5.80098e+07, 7.026e+07, 8.21394e+07, 9.35921e+07, 1.04568e+08, 1.15022e+08, 1.24917e+08, 1.34219e+08, 1.42901e+08, 1.50945e+08, 1.58334e+08, 1.6506e+08, 1.7112e+08, 1.76513e+08, 1.81244e+08, 1.85323e+08, 1.88761e+08, 1.91574e+08, 1.93778e+08, 1.95393e+08, 1.9644e+08, 1.9694e+08, 1.96916e+08, 1.96393e+08, 1.95392e+08, 1.93938e+08, 1.92055e+08, 1.89764e+08, 1.8709e+08, 1.84054e+08, 1.80677e+08, 1.7698e+08, 1.72983e+08, 1.68704e+08, 1.64163e+08, 1.59376e+08, 1.5436e+08, 1.49131e+08, 1.43704e+08, 1.38092e+08, 1.3231e+08, 1.26369e+08, 1.20283e+08, 1.14061e+08, 1.07716e+08, 1.01257e+08, 9.46946e+07, 8.80371e+07, 8.12936e+07, 7.44725e+07, 6.75816e+07, 6.06288e+07, 5.36212e+07, 4.65659e+07, 3.94699e+07, 3.23396e+07, 2.51815e+07, 1.8002e+07, 1.08073e+07, 3.60344e+06
-3.70678e+06, -1.11175e+07, -1.85195e+07, -2.59071e+07, -3.32743e+07, -4.06151e+07, -4.79234e+07, -5.51928e+07, -6.24168e+07, -6.95886e+07, -7.67011e+07, -8.37468e+07, -9.07181e+07, -9.76068e+07, -1.04404e+08, -1.11101e+08, -1.17688e+08, -1.24155e+08, -1.30491e+08, -1.36685e+08, -1.42724e+08, -1.48596e+08, -1.54287e+08, -1.59782e+08, -1.65067e+08, -1.70124e+08, -1.74937e+08, -1.79487e+08, -1.83756e+08, -1.87723e+08, -1.91368e+08, -1.94667e+08, -1.97599e+08, -2.0014e+08, -2.02265e+08, -2.03948e+08, -2.05165e+08, -2.05888e+08, -2.06093e+08, -2.05752e+08, -2.04839e+08, -2.03331e+08, -2.01202e+08, -1.9843e+08, -1.94995e+08, -1.90878e+08, -1.86064e+08, -1.80541e+08, -1.74301e+08, -1.67342e+08, -1.59665e+08, -1.51279e+08, -1.42196e+08, -1.32437e+08, -1.2203e+08, -1.11009e+08, -9.94138e+07, -8.72935e+07, -7.47022e+07, -6.17009e+07, -4.83558e+07, -3.47381e+07, -2.09227e+07, -6.98762e+06, 6.98762e+06, 2.09227e+07, 3.47381e+07, 4.83558e+07, 6.17009e+07, 7.47022e+07, 8.72935e+07, 9.94138e+07, 1.11009e+08, 1.2203e+08, 1.32437e+08, 1.42196e+08, 1.51279e+08, 1.59665e+08, 1.67342e+08, 1.74301e+08, 1.80541e+08, 1.86064e+08, 1.90878e+08, 1.94995e+08, 1.9843e+08, 2.01202e+08, 2.03331e+08, 2.04839e+08, 2.05752e+08, 2.06093e+08, 2.05888e+08, 2.05165e+08, 2.03948e+08, 2.02265e+08, 2.0014e+08, 1.97599e+08, 1.94667e+08, 1.91368e+08, 1.87723e+08, 1.83756e+08, 1.79487e+08, 1.74937e+08, 1.70124e+08, 1.65067e+08, 1.59782e+08, 1.54287e+08, 1.48596e+08, 1.42724e+08, 1.36685e+08, 1.30491e+08, 1.24155e+08, 1.17688e+08, 1.11101e+08, 1.04404e+08, 9.76068e+07, 9.07181e+07, 8.37468e+07, 7.67011e+07, 6.95886e+07, 6.24168e+07, 5.51928e+07, 4.79234e+07, 4.06151e+07, 3.32743e+07, 2.59071e+07, 1.85195e+07, 1.11175e+07, 3.70678e+06
-3.813e+06, -1.14363e+07, -1.90515e+07, -2.6653e+07, -3.42354e+07, -4.17929e+07, -4.93198e+07, -5.68099e+07, -6.42572e+07, -7.16549e+07, -7.89964e+07, -8.62746e+07, -9.34818e+07, -1.0061e+08, -1.07651e+08, -1.14596e+08, -1.21436e+08, -1.28159e+08, -1.34756e+08, -1.41215e+08, -1.47524e+08, -1.5367e+08, -1.59639e+08, -1.65416e+08, -1.70985e+08, -1.7633e+08, -1.81432e+08, -1.86274e+08, -1.90834e+08, -1.95093e+08, -1.99026e+08, -2.02612e+08, -2.05826e+08, -2.08641e+08, -2.11032e+08, -2.12971e+08, -2.1443e+08, -2.15379e+08, -2.15791e+08, -2.15635e+08, -2.14882e+08, -2.13504e+08, -2.11474e+08, -2.08763e+08, -2.05349e+08, -2.01209e+08, -1.96324e+08, -1.90678e+08, -1.84262e+08, -1.77068e+08, -1.69096e+08, -1.60352e+08, -1.50849e+08, -1.40607e+08, -1.29653e+08, -1.18023e+08, -1.05761e+08, -9.29184e+07, -7.95545e+07, -6.57357e+07, -5.15352e+07, -3.70315e+07, -2.23079e+07, -7.45085e+06, 7.45085e+06, 2.23079e+07, 3.70315e+07, 5.15352e+07, 6.57357e+07, 7.95545e+07, 9.29184e+07, 1.05761e+08, 1.18023e+08, 1.29653e+08, 1.40607e+08, 1.50849e+08, 1.60352e+08, 1.69096e+08, 1.77068e+08, 1.84262e+08, 1.90678e+08, 1.96324e+08, 2.01209e+08, 2.05349e+08, 2.08763e+08, 2.11474e+08, 2.13504e+08, 2.14882e+08, 2.15635e+08, 2.15791e+08, 2.15379e+08, 2.1443e+08, 2.12971e+08, 2.11032e+08, 2.08641e+08, 2.05826e+08, 2.02612e+08, 1.99026e+08, 1.95093e+08, 1.90834e+08, 1.86274e+08, 1.81432e+08, 1.7633e+08, 1.70985e+08, 1.65416e+08, 1.59639e+08, 1.5367e+08, 1.47524e+08, 1.41215e+08, 1.34756e+08, 1.28159e+08, 1.21436e+08, 1.14596e+08, 1.07651e+08, 1.0061e+08, 9.34818e+07, 8.62746e+07, 7.89964e+07, 7.16549e+07, 6.42572e+07, 5.68099e+07, 4.93198e+07, 4.17929e+07, 3.42354e+07, 2.6653e+07, 1.90515e+07, 1.14363e+07, 3.813e+06
-3.92193e+06, -1.17633e+07, -1.9597e+07, -2.74181e+07, -3.52214e+07, -4.30015e+07, -5.07529e+07, -5.847e+07, -6.61469e+07, -7.37775e+07, -8.13552e+07, -8.88732e+07, -9.63243e+07, -1.03701e+08, -1.10995e+08, -1.18197e+08, -1.25298e+08, -1.32289e+08, -1.39159e+08, -1.45895e+08, -1.52487e+08, -1.58921e+08, -1.65182e+08, -1.71256e+08, -1.77127e+08, -1.82777e+08, -1.88189e+08, -1.93341e+08, -1.98215e+08, -2.02786e+08, -2.07033e+08, -2.1093e+08, -2.1445e+08, -2.17567e+08, -2.20251e+08, -2.22474e+08, -2.24204e+08, -2.25409e+08, -2.26057e+08, -2.26115e+08, -2.25551e+08, -2.24331e+08, -2.22424e+08, -2.198e+08, -2.16429e+08, -2.12285e+08, -2.07344e+08, -2.01587e+08, -1.94999e+08, -1.87571e+08, -1.79298e+08, -1.70185e+08, -1.60241e+08, -1.49487e+08, -1.37951e+08, -1.25669e+08, -1.12689e+08, -9.90646e+07, -8.48615e+07, -7.01524e+07, -5.50178e+07, -3.95449e+07, -2.38264e+07, -7.95877e+06, 7.95877e+06, 2.38264e+07, 3.95449e+07, 5.50178e+07, 7.01524e+07, 8.48615e+07, 9.90646e+07, 1.12689e+08, 1.25669e+08, 1.37951e+08, 1.49487e+08, 1.60241e+08, 1.70185e+08, 1.79298e+08, 1.87571e+08, 1.94999e+08, 2.01587e+08, 2.07344e+08, 2.12285e+08, 2.16429e+08, 2.198e+08, 2.22424e+08, 2.24331e+08, 2.25551e+08, 2.26115e+08, 2.26057e+08, 2.25409e+08, 2.24204e+08, 2.22474e+08, 2.20251e+08, 2.17567e+08, 2.1445e+08, 2.1093e+08, 2.07033e+08, 2.02786e+08, 1.98215e+08, 1.93341e+08, 1.88189e+08, 1.82777e+08, 1.77127e+08, 1.71256e+08, 1.65182e+08, 1.58921e+08, 1.52487e+08, 1.45895e+08, 1.39159e+08, 1.32289e+08, 1.25298e+08, 1.18197e+08, 1.10995e+08, 1.03701e+08, 9.63243e+07, 8.88732e+07, 8.13552e+07, 7.37775e+07, 6.61469e+07, 5.847e+07, 5.07529e+07, 4.30015e+07, 3.52214e+07, 2.74181e+07, 1.9597e+07, 1.17633e+07, 3.92193e+06
-4.03337e+06, -1.20978e+07, -2.01553e+07, -2.82011e+07, -3.62305e+07, -4.42386e+07, -5.22203e+07, -6.01702e+07, -6.8083e+07, -7.59528e+07, -8.37736e+07, -9.15387e+07, -9.92414e+07, -1.06874e+08, -1.14429e+08, -1.21898e+08, -1.29272e+08, -1.36541e+08, -1.43694e+08, -1.50721e+08, -1.57608e+08, -1.64343e+08, -1.70913e+08, -1.773e+08, -1.8349e+08, -1.89464e+08, -1.95204e+08, -2.00688e+08, -2.05897e+08, -2.10805e+08, -2.15389e+08, -2.19623e+08, -2.23478e+08, -2.26925e+08, -2.29933e+08, -2.3247e+08, -2.34502e+08, -2.35995e+08, -2.36912e+08, -2.37218e+08, -2.36874e+08, -2.35845e+08, -2.34093e+08, -2.31583e+08, -2.28282e+08, -2.24157e+08, -2.1918e+08, -2.13327e+08, -2.06578e+08, -1.98918e+08, -1.90341e+08, -1.80847e+08, -1.70444e+08, -1.59151e+08, -1.46995e+08, -1.34015e+08, -1.2026e+08, -1.0579e+08, -9.06746e+07, -7.49945e+07, -5.88386e+07, -4.2304e+07, -2.54939e+07, -8.51666e+06, 8.51666e+06, 2.54939e+07, 4.2304e+07, 5.88386e+07, 7.49945e+07, 9.06746e+07, 1.0579e+08, 1.2026e+08, 1.34015e+08, 1.46995e+08, 1.59151e+08, 1.70444e+08, 1.80847e+08, 1.90341e+08, 1.98918e+08, 2.06578e+08, 2.13327e+08, 2.1918e+08, 2.24157e+08, 2.28282e+08, 2.31583e+08, 2.34093e+08, 2.35845e+08, 2.36874e+08, 2.37218e+08, 2.36912e+08, 2.35995e+08, 2.34502e+08, 2.3247e+08, 2.29933e+08, 2.26925e+08, 2.23478e+08, 2.19623e+08, 2.15389e+08, 2.10805e+08, 2.05897e+08, 2.00688e+08, 1.95204e+08, 1.89464e+08, 1.8349e+08, 1.773e+08, 1.70913e+08, 1.64343e+08, 1.57608e+08, 1.50721e+08, 1.43694e+08, 1.36541e+08, 1.29272e+08, 1.21898e+08, 1.14429e+08, 1.06874e+08, 9.92414e+07, 9.15387e+07, 8.37736e+07, 7.59528e+07, 6.8083e+07, 6.01702e+07, 5.22203e+07, 4.42386e+07, 3.62305e+07, 2.82011e+07, 2.01553e+07, 1.20978e+07, 4.03337e+06
-4.14713e+06, -1.24393e+07, -2.07252e+07, -2.90005e+07, -3.7261e+07, -4.55021e+07, -5.37193e+07, -6.19077e+07, -7.00621e+07, -7.81773e+07, -8.62475e+07, -9.42667e+07, -1.02228e+08, -1.10125e+08, -1.1795e+08, -1.25695e+08, -1.33351e+08, -1.40908e+08, -1.48356e+08, -1.55685e+08, -1.62881e+08, -1.69933e+08, -1.76825e+08, -1.83542e+08, -1.90068e+08, -1.96385e+08, -2.02473e+08, -2.08312e+08, -2.13878e+08, -2.19149e+08, -2.24097e+08, -2.28695e+08, -2.32914e+08, -2.36722e+08, -2.40086e+08, -2.42971e+08, -2.45341e+08, -2.47157e+08, -2.4838e+08, -2.48969e+08, -2.48883e+08, -2.48081e+08, -2.46519e+08, -2.44158e+08, -2.40958e+08, -2.36881e+08, -2.31893e+08, -2.25964e+08, -2.19067e+08, -2.11184e+08, -2.02302e+08, -1.92418e+08, -1.81537e+08, -1.69676e+08, -1.56863e+08, -1.43135e+08, -1.28546e+08, -1.1316e+08, -9.70526e+07, -8.03124e+07, -6.30383e+07, -4.53384e+07, -2.73286e+07, -9.1306e+06, 9.1306e+06, 2.73286e+07, 4.53384e+07, 6.30383e+07, 8.03124e+07, 9.70526e+07, 1.1316e+08, 1.28546e+08, 1.43135e+08, 1.56863e+08, 1.69676e+08, 1.81537e+08, 1.92418e+08, 2.02302e+08, 2.11184e+08, 2.19067e+08, 2.25964e+08, 2.31893e+08, 2.36881e+08, 2.40958e+08, 2.44158e+08, 2.46519e+08, 2.48081e+08, 2.48883e+08, 2.48969e+08, 2.4838e+08, 2.47157e+08, 2.45341e+08, 2.42971e+08, 2.40086e+08, 2.36722e+08, 2.32914e+08, 2.28695e+08, 2.24097e+08, 2.19149e+08, 2.13878e+08, 2.08312e+08, 2.02473e+08, 1.96385e+08, 1.90068e+08, 1.83542e+08, 1.76825e+08, 1.69933e+08, 1.62881e+08, 1.55685e+08, 1.48356e+08, 1.40908e+08, 1.33351e+08, 1.25695e+08, 1.1795e+08, 1.10125e+08, 1.02228e+08, 9.42667e+07, 8.62475e+07, 7.81773e+07, 7.00621e+07, 6.19077e+07, 5.37193e+07, 4.55021e+07, 3.7261e+07, 2.90005e+07, 2.07252e+07, 1.24393e+07, 4.14713e+06
-4.26297e+06, -1.27871e+07, -2.13056e+07, -2.98148e+07, -3.83108e+07, -4.67897e+07, -5.52472e+07, -6.3679e+07, -7.20805e+07, -8.04468e+07, -8.87726e+07, -9.70523e+07, -1.0528e+08, -1.13449e+08, -1.21551e+08, -1.29581e+08, -1.37528e+08, -1.45384e+08, -1.53138e+08, -1.60781e+08, -1.68299e+08, -1.75681e+08, -1.82911e+08, -1.89975e+08, -1.96856e+08, -2.03535e+08, -2.09993e+08, -2.16208e+08, -2.22157e+08, -2.27814e+08, -2.33154e+08, -2.38146e+08, -2.4276e+08, -2.46962e+08, -2.50717e+08, -2.53987e+08, -2.56732e+08, -2.58912e+08, -2.60481e+08, -2.61396e+08, -2.6161e+08, -2.61075e+08, -2.59745e+08, -2.57573e+08, -2.54511e+08, -2.50517e+08, -2.45548e+08, -2.39567e+08, -2.32542e+08, -2.24447e+08, -2.15265e+08, -2.04985e+08, -1.93611e+08, -1.81155e+08, -1.67644e+08, -1.53118e+08, -1.3763e+08, -1.21251e+08, -1.04063e+08, -8.61643e+07, -6.76637e+07, -4.86827e+07, -2.93516e+07, -9.80769e+06, 9.80769e+06, 2.93516e+07, 4.86827e+07, 6.76637e+07, 8.61643e+07, 1.04063e+08, 1.21251e+08, 1.3763e+08, 1.53118e+08, 1.67644e+08, 1.81155e+08, 1.93611e+08, 2.04985e+08, 2.15265e+08, 2.24447e+08, 2.32542e+08, 2.39567e+08, 2.45548e+08, 2.50517e+08, 2.54511e+08, 2.57573e+08, 2.59745e+08, 2.61075e+08, 2.6161e+08, 2.61396e+08, 2.60481e+08, 2.58912e+08, 2.56732e+08, 2.53987e+08, 2.50717e+08, 2.46962e+08, 2.4276e+08, 2.38146e+08, 2.33154e+08, 2.27814e+08, 2.22157e+08, 2.16208e+08, 2.09993e+08, 2.03535e+08, 1.96856e+08, 1.89975e+08, 1.82911e+08, 1.75681e+08, 1.68299e+08, 1.60781e+08, 1.53138e+08, 1.45384e+08, 1.37528e+08, 1.29581e+08, 1.21551e+08, 1.13449e+08, 1.0528e+08, 9.70523e+07, 8.87726e+07, 8.04468e+07, 7.20805e+07, 6.3679e+07, 5.52472e+07, 4.67897e+07, 3.83108e+07, 2.98148e+07, 2.13056e+07, 1.27871e+07, 4.26297e+06
-4.38066e+06, -1.31404e+07, -2.18953e+07, -3.06423e+07, -3.93778e+07, -4.80985e+07, -5.68007e+07, -6.54806e+07, -7.41341e+07, -8.27567e+07, -9.13437e+07, -9.989e+07, -1.0839e+08, -1.16838e+08, -1.25226e+08, -1.33548e+08, -1.41796e+08, -1.49961e+08, -1.58033e+08, -1.66001e+08, -1.73855e+08, -1.81581e+08, -1.89165e+08, -1.96592e+08, -2.03845e+08, -2.10906e+08, -2.17755e+08, -2.24369e+08, -2.30726e+08, -2.36798e+08, -2.42558e+08, -2.47976e+08, -2.53018e+08, -2.5765e+08, -2.61833e+08, -2.65528e+08, -2.6869e+08, -2.71276e+08, -2.73237e+08, -2.74523e+08, -2.75084e+08, -2.74865e+08, -2.73814e+08, -2.71876e+08, -2.68997e+08, -2.65127e+08, -2.60214e+08, -2.54214e+08, -2.47087e+08, -2.38799e+08, -2.29324e+08, -2.18648e+08, -2.06766e+08, -1.93689e+08, -1.7944e+08, -1.64061e+08, -1.47606e+08, -1.30151e+08, -1.11786e+08, -9.26177e+07, -7.27695e+07, -5.23771e+07, -3.15875e+07, -1.05562e+07, 1.05562e+07, 3.15875e+07, 5.23771e+07, 7.27695e+07, 9.26177e+07, 1.11786e+08, 1.30151e+08, 1.47606e+08, 1.64061e+08, 1.7944e+08, 1.93689e+08, 2.06766e+08, 2.18648e+08, 2.29324e+08, 2.38799e+08, 2.47087e+08, 2.54214e+08, 2.60214e+08, 2.65127e+08, 2.68997e+08, 2.71876e+08, 2.73814e+08, 2.74865e+08, 2.75084e+08, 2.74523e+08, 2.73237e+08, 2.71276e+08, 2.6869e+08, 2.65528e+08, 2.61833e+08, 2.5765e+08, 2.53018e+08, 2.47976e+08, 2.42558e+08, 2.36798e+08, 2.30726e+08, 2.24369e+08, 2.17755e+08, 2.10906e+08, 2.03845e+08, 1.96592e+08, 1.89165e+08, 1.81581e+08, 1.73855e+08, 1.66001e+08, 1.58033e+08, 1.49961e+08, 1.41796e+08, 1.33548e+08, 1.25226e+08, 1.16838e+08, 1.0839e+08, 9.989e+07, 9.13437e+07, 8.27567e+07, 7.41341e+07, 6.54806e+07, 5.68007e+07, 4.80985e+07, 3.93778e+07, 3.06423e+07, 2.18953e+07, 1.31404e+07, 4.38066e+06
-4.49994e+06, -1.34985e+07, -2.24931e+07, -3.14811e+07, -4.04597e+07, -4.94259e+07, -5.83766e+07, -6.73087e+07, -7.62185e+07, -8.51022e+07, -9.39556e+07, -1.02774e+08, -1.11553e+08, -1.20286e+08, -1.28967e+08, -1.3759e+08, -1.46148e+08, -1.54631e+08, -1.6303e+08, -1.71336e+08, -1.79538e+08, -1.87622e+08, -1.95575e+08, -2.03382e+08, -2.11026e+08, -2.18489e+08, -2.25751e+08, -2.32789e+08, -2.39579e+08, -2.46094e+08, -2.52305e+08, -2.58181e+08, -2.63687e+08, -2.68787e+08, -2.73439e+08, -2.776e+08, -2.81226e+08, -2.84265e+08, -2.86667e+08, -2.88377e+08, -2.89337e+08, -2.89488e+08, -2.8877e+08, -2.87119e+08, -2.84476e+08, -2.80778e+08, -2.75968e+08, -2.69989e+08, -2.62793e+08, -2.54337e+08, -2.44585e+08, -2.33515e+08, -2.21117e+08, -2.07394e+08, -1.92368e+08, -1.76078e+08, -1.58583e+08, -1.39961e+08, -1.20311e+08, -9.97512e+07, -7.84195e+07, -5.64686e+07, -3.40651e+07, -1.13859e+07, 1.13859e+07, 3.40651e+07, 5.64686e+07, 7.84195e+07, 9.97512e+07, 1.20311e+08, 1.39961e+08, 1.58583e+08, 1.76078e+08, 1.92368e+08, 2.07394e+08, 2.21117e+08, 2.33515e+08, 2.44585e+08, 2.54337e+08, 2.62793e+08, 2.69989e+08, 2.75968e+08, 2.80778e+08, 2.84476e+08, 2.87119e+08, 2.8877e+08, 2.89488e+08, 2.89337e+08, 2.88377e+08, 2.86667e+08, 2.84265e+08, 2.81226e+08, 2.776e+08, 2.73439e+08, 2.68787e+08, 2.63687e+08, 2.58181e+08, 2.52305e+08, 2.46094e+08, 2.39579e+08, 2.32789e+08, 2.25751e+08, 2.18489e+08, 2.11026e+08, 2.03382e+08, 1.95575e+08, 1.87622e+08, 1.79538e+08, 1.71336e+08, 1.6303e+08, 1.54631e+08, 1.46148e+08, 1.3759e+08, 1.28967e+08, 1.20286e+08, 1.11553e+08, 1.02774e+08, 9.39556e+07, 8.51022e+07, 7.62185e+07, 6.73087e+07, 5.83766e+07, 4.94259e+07, 4.04597e+07, 3.14811e+07, 2.24931e+07, 1.34985e+07, 4.49994e+06
-4.62053e+06, -1.38606e+07, -2.30975e+07, -3.23294e+07, -4.15538e+07, -5.07686e+07, -5.99713e+07, -6.91591e+07, -7.83291e+07, -8.7478e+07, -9.66024e+07, -1.05698e+08, -1.14761e+08, -1.23786e+08, -1.32767e+08, -1.41698e+08, -1.50573e+08, -1.59384e+08, -1.68121e+08, -1.76776e+08, -1.85338e+08, -1.93794e+08, -2.02131e+08, -2.10335e+08, -2.18389e+08, -2.26274e+08, -2.33971e+08, -2.41457e+08, -2.48707e+08, -2.55694e+08, -2.62388e+08, -2.68756e+08, -2.74763e+08, -2.8037e+08, -2.85534e+08, -2.90209e+08, -2.94346e+08, -2.97892e+08, -3.0079e+08, -3.0298e+08, -3.04399e+08, -3.04981e+08, -3.04657e+08, -3.03356e+08, -3.01008e+08, -2.97542e+08, -2.92889e+08, -2.86982e+08, -2.7976e+08, -2.71169e+08, -2.61164e+08, -2.49711e+08, -2.36792e+08, -2.22403e+08, -2.0656e+08, -1.89301e+08, -1.70686e+08, -1.50798e+08, -1.29745e+08, -1.07657e+08, -8.46888e+07, -6.10127e+07, -3.68185e+07, -1.23082e+07, 1.23082e+07, 3.68185e+07, 6.10127e+07, 8.46888e+07, 1.07657e+08, 1.29745e+08, 1.50798e+08, 1.70686e+08, 1.89301e+08, 2.0656e+08, 2.22403e+08, 2.36792e+08, 2.49711e+08, 2.61164e+08, 2.71169e+08, 2.7976e+08, 2.86982e+08, 2.92889e+08, 2.97542e+08, 3.01008e+08, 3.03356e+08, 3.04657e+08, 3.04981e+08, 3.04399e+08, 3.0298e+08, 3.0079e+08, 2.97892e+08, 2.94346e+08, 2.90209e+08, 2.85534e+08, 2.8037e+08, 2.74763e+08, 2.68756e+08, 2.62388e+08, 2.55694e+08, 2.48707e+08, 2.41457e+08, 2.33971e+08, 2.26274e+08, 2.18389e+08, 2.10335e+08, 2.02131e+08, 1.93794e+08, 1.85338e+08, 1.76776e+08, 1.68121e+08, 1.59384e+08, 1.50573e+08, 1.41698e+08, 1.32767e+08, 1.23786e+08, 1.14761e+08, 1.05698e+08, 9.66024e+07, 8.7478e+07, 7.83291e+07, 6.91591e+07, 5.99713e+07, 5.07686e+07, 4.15538e+07, 3.23294e+07, 2.30975e+07, 1.38606e+07, 4.62053e+06
-4.74213e+06, -1.42257e+07, -2.37071e+07, -3.3185e+07, -4.26577e+07, -5.21236e+07, -6.15807e+07, -7.10272e+07, -8.04606e+07, -8.98784e+07, -9.92777e+07, -1.08655e+08, -1.18007e+08, -1.27329e+08, -1.36616e+08, -1.45863e+08, -1.55063e+08, -1.6421e+08, -1.73295e+08, -1.8231e+08, -1.91243e+08, -2.00085e+08, -2.08822e+08, -2.17439e+08, -2.2592e+08, -2.34248e+08, -2.42402e+08, -2.5036e+08, -2.58097e+08, -2.65586e+08, -2.72796e+08, -2.79693e+08, -2.8624e+08, -2.92396e+08, -2.98118e+08, -3.03356e+08, -3.08058e+08, -3.12167e+08, -3.15621e+08, -3.18355e+08, -3.20299e+08, -3.2138e+08, -3.2152e+08, -3.2064e+08, -3.18659e+08, -3.15494e+08, -3.11064e+08, -3.0529e+08, -2.98096e+08, -2.89416e+08, -2.79191e+08, -2.67375e+08, -2.53936e+08, -2.38865e+08, -2.22168e+08, -2.03881e+08, -1.84062e+08, -1.62801e+08, -1.40213e+08, -1.16444e+08, -9.16658e+07, -6.60749e+07, -3.98878e+07, -1.33368e+07, 1.33368e+07, 3.98878e+07, 6.60749e+07, 9.16658e+07, 1.16444e+08, 1.40213e+08, 1.62801e+08, 1.84062e+08, 2.03881e+08, 2.22168e+08, 2.38865e+08, 2.53936e+08, 2.67375e+08, 2.79191e+08, 2.89416e+08, 2.98096e+08, 3.0529e+08, 3.11064e+08, 3.15494e+08, 3.18659e+08, 3.2064e+08, 3.2152e+08, 3.2138e+08, 3.20299e+08, 3.18355e+08, 3.15621e+08, 3.12167e+08, 3.08058e+08, 3.03356e+08, 2.98118e+08, 2.92396e+08, 2.8624e+08, 2.79693e+08, 2.72796e+08, 2.65586e+08, 2.58097e+08, 2.5036e+08, 2.42402e+08, 2.34248e+08, 2.2592e+08, 2.17439e+08, 2.08822e+08, 2.00085e+08, 1.91243e+08, 1.8231e+08, 1.73295e+08, 1.6421e+08, 1.55063e+08, 1.45863e+08, 1.36616e+08, 1.27329e+08, 1.18007e+08, 1.08655e+08, 9.92777e+07, 8.98784e+07, 8.04606e+07, 7.10272e+07, 6.15807e+07, 5.21236e+07, 4.26577e+07, 3.3185e+07, 2.37071e+07, 1.42257e+07, 4.74213e+06
-4.86443e+06, -1.45929e+07, -2.43203e+07, -3.40457e+07, -4.37684e+07, -5.34872e+07, -6.32009e+07, -7.29084e+07, -8.26078e+07, -9.22974e+07, -1.01975e+08, -1.11638e+08, -1.21283e+08, -1.30907e+08, -1.40505e+08, -1.50074e+08, -1.59607e+08, -1.69098e+08, -1.78539e+08, -1.87924e+08, -1.97241e+08, -2.06481e+08, -2.15631e+08, -2.24677e+08, -2.33605e+08, -2.42395e+08, -2.51029e+08, -2.59485e+08, -2.67737e+08, -2.75758e+08, -2.83516e+08, -2.90979e+08, -2.98107e+08, -3.04858e+08, -3.11186e+08, -3.1704e+08, -3.22363e+08, -3.27096e+08, -3.31172e+08, -3.34519e+08, -3.37062e+08, -3.38719e+08, -3.39403e+08, -3.39026e+08, -3.37494e+08, -3.34711e+08, -3.30583e+08, -3.25016e+08, -3.17919e+08, -3.09208e+08, -2.98809e+08, -2.86659e+08, -2.72715e+08, -2.56951e+08, -2.39367e+08, -2.19991e+08, -1.98882e+08, -1.7613e+08, -1.51863e+08, -1.2624e+08, -9.94555e+07, -7.17331e+07, -4.33213e+07, -1.44877e+07, 1.44877e+07, 4.33213e+07, 7.17331e+07, 9.94555e+07, 1.2624e+08, 1.51863e+08, 1.7613e+08, 1.98882e+08, 2.19991e+08, 2.39367e+08, 2.56951e+08, 2.72715e+08, 2.86659e+08, 2.98809e+08, 3.09208e+08, 3.17919e+08, 3.25016e+08, 3.30583e+08, 3.34711e+08, 3.37494e+08, 3.39026e+08, 3.39403e+08, 3.38719e+08, 3.37062e+08, 3.34519e+08, 3.31172e+08, 3.27096e+08, 3.22363e+08, 3.1704e+08, 3.11186e+08, 3.04858e+08, 2.98107e+08, 2.90979e+08, 2.83516e+08, 2.75758e+08, 2.67737e+08, 2.59485e+08, 2.51029e+08, 2.42395e+08, 2.33605e+08, 2.24677e+08, 2.15631e+08, 2.06481e+08, 1.97241e+08, 1.87924e+08, 1.78539e+08, 1.69098e+08, 1.59607e+08, 1.50074e+08, 1.40505e+08, 1.30907e+08, 1.21283e+08, 1.11638e+08, 1.01975e+08, 9.22974e+07, 8.26078e+07, 7.29084e+07, 6.32009e+07, 5.34872e+07, 4.37684e+07, 3.40457e+07, 2.43203e+07, 1.45929e+07, 4.86443e+06
-4.98711e+06, -1.49613e+07, -2.49354e+07, -3.49093e+07, -4.48829e+07, -5.48558e+07, -6.48275e+07, -7.47975e+07, -8.47648e+07, -9.47284e+07, -1.04687e+08, -1.14638e+08, -1.2458e+08, -1.3451e+08, -1.44425e+08, -1.54321e+08, -1.64192e+08, -1.74035e+08, -1.83841e+08, -1.93605e+08, -2.03317e+08, -2.12967e+08, -2.22544e+08, -2.32035e+08, -2.41426e+08, -2.50699e+08, -2.59835e+08, -2.68813e+08, -2.77607e+08, -2.86191e+08, -2.94534e+08, -3.026e+08, -3.1035e+08, -3.17742e+08, -3.24728e+08, -3.31253e+08, -3.37259e+08, -3.42682e+08, -3.47451e+08, -3.51488e+08, -3.54711e+08, -3.5703e+08, -3.58348e+08, -3.58566e+08, -3.57578e+08, -3.55274e+08, -3.51542e+08, -3.46273e+08, -3.39356e+08, -3.30688e+08, -3.20176e+08, -3.07739e+08, -2.93313e+08, -2.76857e+08, -2.58359e+08, -2.37836e+08, -2.15343e+08, -1.90975e+08, -1.64867e+08, -1.37197e+08, -1.08183e+08, -7.80809e+07, -4.71764e+07, -1.57806e+07, 1.57806e+07, 4.71764e+07, 7.80809e+07, 1.08183e+08, 1.37197e+08, 1.64867e+08, 1.90975e+08, 2.15343e+08, 2.37836e+08, 2.58359e+08, 2.76857e+08, 2.93313e+08, 3.07739e+08, 3.20176e+08, 3.30688e+08, 3.39356e+08, 3.46273e+08, 3.51542e+08, 3.55274e+08, 3.57578e+08, 3.58566e+08, 3.58348e+08, 3.5703e+08, 3.54711e+08, 3.51488e+08, 3.47451e+08, 3.42682e+08, 3.37259e+08, 3.31253e+08, 3.24728e+08, 3.17742e+08, 3.1035e+08, 3.026e+08, 2.94534e+08, 2.86191e+08, 2.77607e+08, 2.68813e+08, 2.59835e+08, 2.50699e+08, 2.41426e+08, 2.32035e+08, 2.22544e+08, 2.12967e+08, 2.03317e+08, 1.93605e+08, 1.83841e+08, 1.74035e+08, 1.64192e+08, 1.54321e+08, 1.44425e+08, 1.3451e+08, 1.2458e+08, 1.14638e+08, 1.04687e+08, 9.47284e+07, 8.47648e+07, 7.47975e+07, 6.48275e+07, 5.48558e+07, 4.48829e+07, 3.49093e+07, 2.49354e+07, 1.49613e+07, 4.98711e+06
-5.1098e+06, -1.53297e+07, -2.55507e+07, -3.57733e+07, -4.59981e+07, -5.62255e+07, -6.64558e+07, -7.66892e+07, -8.69256e+07, -9.71647e+07, -1.07406e+08, -1.17648e+08, -1.2789e+08, -1.38129e+08, -1.48364e+08, -1.58591e+08, -1.68807e+08, -1.79007e+08, -1.89186e+08, -1.99337e+08, -2.09454e+08, -2.19526e+08, -2.29543e+08, -2.39494e+08, -2.49365e+08, -2.59139e+08, -2.68799e+08, -2.78324e+08, -2.87688e+08, -2.96866e+08, -3.05827e+08, -3.14536e+08, -3.22952e+08, -3.31034e+08, -3.3873e+08, -3.45985e+08, -3.52739e+08, -3.58923e+08, -3.64461e+08, -3.69272e+08, -3.73264e+08, -3.7634e+08, -3.78394e+08, -3.79314e+08, -3.78978e+08, -3.77263e+08, -3.7404e+08, -3.69176e+08, -3.62543e+08, -3.54013e+08, -3.4347e+08, -3.30808e+08, -3.1594e+08, -2.98807e+08, -2.79375e+08, -2.5765e+08, -2.3368e+08, -2.0756e+08, -1.79434e+08, -1.49499e+08, -1.18e+08, -8.52306e+07, -5.15227e+07, -1.7239e+07, 1.7239e+07, 5.15227e+07, 8.52306e+07, 1.18e+08, 1.49499e+08, 1.79434e+08, 2.0756e+08, 2.3368e+08, 2.5765e+08, 2.79375e+08, 2.98807e+08, 3.1594e+08, 3.30808e+08, 3.4347e+08, 3.54013e+08, 3.62543e+08, 3.69176e+08, 3.7404e+08, 3.77263e+08, 3.78978e+08, 3.79314e+08, 3.78394e+08, 3.7634e+08, 3.73264e+08, 3.69272e+08, 3.64461e+08, 3.58923e+08, 3.52739e+08, 3.45985e+08, 3.3873e+08, 3.31034e+08, 3.22952e+08, 3.14536e+08, 3.05827e+08, 2.96866e+08, 2.87688e+08, 2.78324e+08, 2.68799e+08, 2.59139e+08, 2.49365e+08, 2.39494e+08, 2.29543e+08, 2.19526e+08, 2.09454e+08, 1.99337e+08, 1.89186e+08, 1.79007e+08, 1.68807e+08, 1.58591e+08, 1.48364e+08, 1.38129e+08, 1.2789e+08, 1.17648e+08, 1.07406e+08, 9.71647e+07, 8.69256e+07, 7.66892e+07, 6.64558e+07, 5.62255e+07, 4.59981e+07, 3.57733e+07, 2.55507e+07, 1.53297e+07, 5.1098e+06
-5.23216e+06, -1.56972e+07, -2.61644e+07, -3.66351e+07, -4.71106e+07, -5.75923e+07, -6.80811e+07, -7.8578e+07, -8.90838e+07, -9.95989e+07, -1.10124e+08, -1.20658e+08, -1.31201e+08, -1.41752e+08, -1.5231e+08, -1.62873e+08, -1.73438e+08, -1.84001e+08, -1.94559e+08, -2.05105e+08, -2.15635e+08, -2.26139e+08, -2.36609e+08, -2.47033e+08, -2.574e+08, -2.67695e+08, -2.77899e+08, -2.87994e+08, -2.97956e+08, -3.07759e+08, -3.17373e+08, -3.26763e+08, -3.3589e+08, -3.4471e+08, -3.53172e+08, -3.61219e+08, -3.68789e+08, -3.75809e+08, -3.822e+08, -3.87874e+08, -3.92734e+08, -3.96673e+08, -3.99575e+08, -4.01315e+08, -4.01758e+08, -4.00762e+08, -3.98177e+08, -3.9385e+08, -3.87626e+08, -3.79352e+08, -3.68882e+08, -3.56081e+08, -3.40835e+08, -3.23054e+08, -3.02683e+08, -2.79709e+08, -2.54167e+08, -2.2615e+08, -1.9581e+08, -1.63363e+08, -1.29087e+08, -9.33188e+07, -5.6445e+07, -1.88915e+07, 1.88915e+07, 5.6445e+07, 9.33188e+07, 1.29087e+08, 1.63363e+08, 1.9581e+08, 2.2615e+08, 2.54167e+08, 2.79709e+08, 3.02683e+08, 3.23054e+08, 3.40835e+08, 3.56081e+08, 3.68882e+08, 3.79352e+08, 3.87626e+08, 3.9385e+08, 3.98177e+08, 4.00762e+08, 4.01758e+08, 4.01315e+08, 3.99575e+08, 3.96673e+08, 3.92734e+08, 3.87874e+08, 3.822e+08, 3.75809e+08, 3.68789e+08, 3.61219e+08, 3.53172e+08, 3.4471e+08, 3.3589e+08, 3.26763e+08, 3.17373e+08, 3.07759e+08, 2.97956e+08, 2.87994e+08, 2.77899e+08, 2.67695e+08, 2.574e+08, 2.47033e+08, 2.36609e+08, 2.26139e+08, 2.15635e+08, 2.05105e+08, 1.94559e+08, 1.84001e+08, 1.73438e+08, 1.62873e+08, 1.5231e+08, 1.41752e+08, 1.31201e+08, 1.20658e+08, 1.10124e+08, 9.95989e+07, 8.90838e+07, 7.8578e+07, 6.80811e+07, 5.75923e+07, 4.71106e+07, 3.66351e+07, 2.61644e+07, 1.56972e+07, 5.23216e+06
-5.35379e+06, -1.60625e+07, -2.67745e+07, -3.7492e+07, -4.82171e+07, -5.89519e+07, -6.96983e+07, -8.04579e+07, -9.12326e+07, -1.02024e+08, -1.12832e+08, -1.23659e+08, -1.34504e+08, -1.45369e+08, -1.56252e+08, -1.67153e+08, -1.7807e+08, -1.89001e+08, -1.99942e+08, -2.10891e+08, -2.21841e+08, -2.32786e+08, -2.43719e+08, -2.5463e+08, -2.65508e+08, -2.7634e+08, -2.87109e+08, -2.97797e+08, -3.08383e+08, -3.18841e+08, -3.29143e+08, -3.39253e+08, -3.49135e+08, -3.58744e+08, -3.68029e+08, -3.76932e+08, -3.85388e+08, -3.93323e+08, -4.00655e+08, -4.0729e+08, -4.13124e+08, -4.18043e+08, -4.21919e+08, -4.24614e+08, -4.25977e+08, -4.25848e+08, -4.24056e+08, -4.2042e+08, -4.14759e+08, -4.06887e+08, -3.96624e+08, -3.838e+08, -3.68264e+08, -3.49891e+08, -3.28595e+08, -3.04336e+08, -2.7713e+08, -2.47064e+08, -2.14294e+08, -1.79057e+08, -1.41667e+08, -1.02512e+08, -6.2047e+07, -2.07733e+07, 2.07733e+07, 6.2047e+07, 1.02512e+08, 1.41667e+08, 1.79057e+08, 2.14294e+08, 2.47064e+08, 2.7713e+08, 3.04336e+08, 3.28595e+08, 3.49891e+08, 3.68264e+08, 3.838e+08, 3.96624e+08, 4.06887e+08, 4.14759e+08, 4.2042e+08, 4.24056e+08, 4.25848e+08, 4.25977e+08, 4.24614e+08, 4.21919e+08, 4.18043e+08, 4.13124e+08, 4.0729e+08, 4.00655e+08, 3.93323e+08, 3.85388e+08, 3.76932e+08, 3.68029e+08, 3.58744e+08, 3.49135e+08, 3.39253e+08, 3.29143e+08, 3.18841e+08, 3.08383e+08, 2.97797e+08, 2.87109e+08, 2.7634e+08, 2.65508e+08, 2.5463e+08, 2.43719e+08, 2.32786e+08, 2.21841e+08, 2.10891e+08, 1.99942e+08, 1.89001e+08, 1.7807e+08, 1.67153e+08, 1.56252e+08, 1.45369e+08, 1.34504e+08, 1.23659e+08, 1.12832e+08, 1.02024e+08, 9.12326e+07, 8.04579e+07, 6.96983e+07, 5.89519e+07, 4.82171e+07, 3.7492e+07, 2.67745e+07, 1.60625e+07, 5.35379e+06
-5.47431e+06, -1.64244e+07, -2.73791e+07, -3.83413e+07, -4.9314e+07, -6.03e+07, -7.13021e+07, -8.23229e+07, -9.3365e+07, -1.04431e+08, -1.15522e+08, -1.26641e+08, -1.37789e+08, -1.48967e+08, -1.60176e+08, -1.71417e+08, -1.82688e+08, -1.93989e+08, -2.05319e+08, -2.16674e+08, -2.28052e+08, -2.39446e+08, -2.50852e+08, -2.6226e+08, -2.73663e+08, -2.85047e+08, -2.96399e+08, -3.07703e+08, -3.18937e+08, -3.3008e+08, -3.41102e+08, -3.51973e+08, -3.62654e+08, -3.73102e+08, -3.83267e+08, -3.93091e+08, -4.02508e+08, -4.11442e+08, -4.19807e+08, -4.27507e+08, -4.3443e+08, -4.40455e+08, -4.45443e+08, -4.49243e+08, -4.51689e+08, -4.52599e+08, -4.51777e+08, -4.49017e+08, -4.44103e+08, -4.36813e+08, -4.26927e+08, -4.14231e+08, -3.98529e+08, -3.79652e+08, -3.5747e+08, -3.31908e+08, -3.02955e+08, -2.70681e+08, -2.35244e+08, -1.96903e+08, -1.5601e+08, -1.13017e+08, -6.84571e+07, -2.29282e+07, 2.29282e+07, 6.84571e+07, 1.13017e+08, 1.5601e+08, 1.96903e+08, 2.35244e+08, 2.70681e+08, 3.02955e+08, 3.31908e+08, 3.5747e+08, 3.79652e+08, 3.98529e+08, 4.14231e+08, 4.26927e+08, 4.36813e+08, 4.44103e+08, 4.49017e+08, 4.51777e+08, 4.52599e+08, 4.51689e+08, 4.49243e+08, 4.45443e+08, 4.40455e+08, 4.3443e+08, 4.27507e+08, 4.19807e+08, 4.11442e+08, 4.02508e+08, 3.93091e+08, 3.83267e+08, 3.73102e+08, 3.62654e+08, 3.51973e+08, 3.41102e+08, 3.3008e+08, 3.18937e+08, 3.07703e+08, 2.96399e+08, 2.85047e+08, 2.73663e+08, 2.6226e+08, 2.50852e+08, 2.39446e+08, 2.28052e+08, 2.16674e+08, 2.05319e+08, 1.93989e+08, 1.82688e+08, 1.71417e+08, 1.60176e+08, 1.48967e+08, 1.37789e+08, 1.26641e+08, 1.15522e+08, 1.04431e+08, 9.3365e+07, 8.23229e+07, 7.13021e+07, 6.03e+07, 4.9314e+07, 3.83413e+07, 2.73791e+07, 1.64244e+07, 5.47431e+06
-5.59332e+06, -1.67819e+07, -2.79762e+07, -3.91802e+07, -5.03975e+07, -6.16319e+07, -7.28871e+07, -8.41666e+07, -9.54739e+07, -1.06812e+08, -1.18185e+08, -1.29594e+08, -1.41043e+08, -1.52534e+08, -1.64069e+08, -1.75649e+08, -1.87276e+08, -1.9895e+08, -2.1067e+08, -2.22436e+08, -2.34245e+08, -2.46095e+08, -2.57981e+08, -2.69897e+08, -2.81835e+08, -2.93786e+08, -3.05739e+08, -3.17677e+08, -3.29584e+08, -3.41438e+08, -3.53214e+08, -3.64882e+08, -3.76406e+08, -3.87743e+08, -3.98846e+08, -4.09657e+08, -4.2011e+08, -4.30129e+08, -4.39626e+08, -4.48499e+08, -4.56635e+08, -4.63903e+08, -4.70156e+08, -4.75228e+08, -4.78937e+08, -4.8108e+08, -4.81437e+08, -4.79768e+08, -4.75823e+08, -4.69336e+08, -4.6004e+08, -4.47668e+08, -4.31969e+08, -4.12717e+08, -3.89726e+08, -3.62871e+08, -3.321e+08, -2.97459e+08, -2.59101e+08, -2.17299e+08, -1.72455e+08, -1.2509e+08, -7.58357e+07, -2.54108e+07, 2.54108e+07, 7.58357e+07, 1.2509e+08, 1.72455e+08, 2.17299e+08, 2.59101e+08, 2.97459e+08, 3.321e+08, 3.62871e+08, 3.89726e+08, 4.12717e+08, 4.31969e+08, 4.47668e+08, 4.6004e+08, 4.69336e+08, 4.75823e+08, 4.79768e+08, 4.81437e+08, 4.8108e+08, 4.78937e+08, 4.75228e+08, 4.70156e+08, 4.63903e+08, 4.56635e+08, 4.48499e+08, 4.39626e+08, 4.30129e+08, 4.2011e+08, 4.09657e+08, 3.98846e+08, 3.87743e+08, 3.76406e+08, 3.64882e+08, 3.53214e+08, 3.41438e+08, 3.29584e+08, 3.17677e+08, 3.05739e+08, 2.93786e+08, 2.81835e+08, 2.69897e+08, 2.57981e+08, 2.46095e+08, 2.34245e+08, 2.22436e+08, 2.1067e+08, 1.9895e+08, 1.87276e+08, 1.75649e+08, 1.64069e+08, 1.52534e+08, 1.41043e+08, 1.29594e+08, 1.18185e+08, 1.06812e+08, 9.54739e+07, 8.41666e+07, 7.28871e+07, 6.16319e+07, 5.03975e+07, 3.91802e+07, 2.79762e+07, 1.67819e+07, 5.59332e+06
-5.71039e+06, -1.71335e+07, -2.85637e+07, -4.00056e+07, -5.14639e+07, -6.29431e+07, -7.44479e+07, -8.59826e+07, -9.75518e+07, -1.0916e+08, -1.2081e+08, -1.32508e+08, -1.44255e+08, -1.56057e+08, -1.67916e+08, -1.79836e+08, -1.91817e+08, -2.03864e+08, -2.15976e+08, -2.28154e+08, -2.40398e+08, -2.52708e+08, -2.6508e+08, -2.7751e+08, -2.89995e+08, -3.02525e+08, -3.15092e+08, -3.27683e+08, -3.40284e+08, -3.52875e+08, -3.65435e+08, -3.77935e+08, -3.90343e+08, -4.02619e+08, -4.14717e+08, -4.26581e+08, -4.38147e+08, -4.49338e+08, -4.60067e+08, -4.7023e+08, -4.79709e+08, -4.88367e+08, -4.96048e+08, -5.02576e+08, -5.07751e+08, -5.11348e+08, -5.13121e+08, -5.12797e+08, -5.10083e+08, -5.04669e+08, -4.96228e+08, -4.84433e+08, -4.68963e+08, -4.4952e+08, -4.25847e+08, -3.97748e+08, -3.65117e+08, -3.27955e+08, -2.864e+08, -2.40739e+08, -1.9142e+08, -1.39051e+08, -8.43851e+07, -2.829e+07, 2.829e+07, 8.43851e+07, 1.39051e+08, 1.9142e+08, 2.40739e+08, 2.864e+08, 3.27955e+08, 3.65117e+08, 3.97748e+08, 4.25847e+08, 4.4952e+08, 4.68963e+08, 4.84433e+08, 4.96228e+08, 5.04669e+08, 5.10083e+08, 5.12797e+08, 5.13121e+08, 5.11348e+08, 5.07751e+08, 5.02576e+08, 4.96048e+08, 4.88367e+08, 4.79709e+08, 4.7023e+08, 4.60067e+08, 4.49338e+08, 4.38147e+08, 4.26581e+08, 4.14717e+08, 4.02619e+08, 3.90343e+08, 3.77935e+08, 3.65435e+08, 3.52875e+08, 3.40284e+08, 3.27683e+08, 3.15092e+08, 3.02525e+08, 2.89995e+08, 2.7751e+08, 2.6508e+08, 2.52708e+08, 2.40398e+08, 2.28154e+08, 2.15976e+08, 2.03864e+08, 1.91817e+08, 1.79836e+08, 1.67916e+08, 1.56057e+08, 1.44255e+08, 1.32508e+08, 1.2081e+08, 1.0916e+08, 9.75518e+07, 8.59826e+07, 7.44479e+07, 6.29431e+07, 5.14639e+07, 4.00056e+07, 2.85637e+07, 1.71335e+07, 5.71039e+06
-5.82512e+06, -1.74781e+07, -2.91395e+07, -4.08147e+07, -5.25093e+07, -6.42288e+07, -7.59786e+07, -8.77642e+07, -9.9591e+07, -1.11464e+08, -1.23389e+08, -1.3537e+08, -1.47414e+08, -1.59523e+08, -1.71704e+08, -1.83959e+08, -1.96294e+08, -2.08712e+08, -2.21215e+08, -2.33806e+08, -2.46487e+08, -2.59258e+08, -2.7212e+08, -2.85071e+08, -2.98108e+08, -3.11227e+08, -3.2442e+08, -3.37679e+08, -3.50992e+08, -3.64344e+08, -3.77715e+08, -3.91081e+08, -4.04412e+08, -4.17674e+08, -4.30822e+08, -4.43804e+08, -4.56558e+08, -4.69011e+08, -4.81074e+08, -4.92645e+08, -5.03602e+08, -5.13807e+08, -5.23094e+08, -5.31278e+08, -5.38141e+08, -5.43441e+08, -5.46901e+08, -5.48215e+08, -5.47046e+08, -5.43027e+08, -5.3577e+08, -5.24873e+08, -5.09931e+08, -4.90554e+08, -4.66392e+08, -4.37159e+08, -4.02663e+08, -3.62845e+08, -3.17805e+08, -2.67836e+08, -2.13435e+08, -1.5531e+08, -9.43633e+07, -3.16543e+07, 3.16543e+07, 9.43633e+07, 1.5531e+08, 2.13435e+08, 2.67836e+08, 3.17805e+08, 3.62845e+08, 4.02663e+08, 4.37159e+08, 4.66392e+08, 4.90554e+08, 5.09931e+08, 5.24873e+08, 5.3577e+08, 5.43027e+08, 5.47046e+08, 5.48215e+08, 5.46901e+08, 5.43441e+08, 5.38141e+08, 5.31278e+08, 5.23094e+08, 5.13807e+08, 5.03602e+08, 4.92645e+08, 4.81074e+08, 4.69011e+08, 4.56558e+08, 4.43804e+08, 4.30822e+08, 4.17674e+08, 4.04412e+08, 3.91081e+08, 3.77715e+08, 3.64344e+08, 3.50992e+08, 3.37679e+08, 3.2442e+08, 3.11227e+08, 2.98108e+08, 2.85071e+08, 2.7212e+08, 2.59258e+08, 2.46487e+08, 2.33806e+08, 2.21215e+08, 2.08712e+08, 1.96294e+08, 1.83959e+08, 1.71704e+08, 1.59523e+08, 1.47414e+08, 1.3537e+08, 1.23389e+08, 1.11464e+08, 9.9591e+07, 8.77642e+07, 7.59786e+07, 6.42288e+07, 5.25093e+07, 4.08147e+07, 2.91395e+07, 1.74781e+07, 5.82512e+06
-5.93708e+06, -1.78144e+07, -2.97014e+07, -4.16044e+07, -5.35298e+07, -6.54841e+07, -7.74736e+07, -8.95047e+07, -1.01584e+08, -1.13717e+08, -1.25911e+08, -1.38172e+08, -1.50506e+08, -1.62918e+08, -1.75416e+08, -1.88004e+08, -2.00688e+08, -2.13474e+08, -2.26366e+08, -2.39368e+08, -2.52484e+08, -2.65718e+08, -2.79071e+08, -2.92545e+08, -3.0614e+08, -3.19853e+08, -3.33683e+08, -3.47622e+08, -3.61662e+08, -3.75793e+08, -3.89999e+08, -4.0426e+08, -4.18552e+08, -4.32842e+08, -4.47092e+08, -4.61255e+08, -4.75271e+08, -4.89072e+08, -5.02573e+08, -5.15672e+08, -5.2825e+08, -5.40163e+08, -5.51245e+08, -5.61299e+08, -5.70096e+08, -5.77373e+08, -5.82828e+08, -5.86117e+08, -5.86857e+08, -5.84623e+08, -5.78953e+08, -5.69358e+08, -5.55332e+08, -5.36374e+08, -5.1201e+08, -4.81831e+08, -4.45532e+08, -4.02956e+08, -3.54141e+08, -2.99365e+08, -2.39174e+08, -1.74391e+08, -1.06104e+08, -3.56179e+07, 3.56179e+07, 1.06104e+08, 1.74391e+08, 2.39174e+08, 2.99365e+08, 3.54141e+08, 4.02956e+08, 4.45532e+08, 4.81831e+08, 5.1201e+08, 5.36374e+08, 5.55332e+08, 5.69358e+08, 5.78953e+08, 5.84623e+08, 5.86857e+08, 5.86117e+08, 5.82828e+08, 5.77373e+08, 5.70096e+08, 5.61299e+08, 5.51245e+08, 5.40163e+08, 5.2825e+08, 5.15672e+08, 5.02573e+08, 4.89072e+08, 4.75271e+08, 4.61255e+08, 4.47092e+08, 4.32842e+08, 4.18552e+08, 4.0426e+08, 3.89999e+08, 3.75793e+08, 3.61662e+08, 3.47622e+08, 3.33683e+08, 3.19853e+08, 3.0614e+08, 2.92545e+08, 2.79071e+08, 2.65718e+08, 2.52484e+08, 2.39368e+08, 2.26366e+08, 2.13474e+08, 2.00688e+08, 1.88004e+08, 1.75416e+08, 1.62918e+08, 1.50506e+08, 1.38172e+08, 1.25911e+08, 1.13717e+08, 1.01584e+08, 8.95047e+07, 7.74736e+07, 6.54841e+07, 5.35298e+07, 4.16044e+07, 2.97014e+07, 1.78144e+07, 5.93708e+06
-6.04582e+06, -1.81411e+07, -3.02473e+07, -4.23717e+07, -5.45215e+07, -6.67042e+07, -7.89269e+07, -9.11971e+07, -1.03522e+08, -1.15909e+08, -1.28366e+08, -1.409e+08, -1.53518e+08, -1.66228e+08, -1.79037e+08, -1.91953e+08, -2.04981e+08, -2.1813e+08, -2.31407e+08, -2.44816e+08, -2.58365e+08, -2.72059e+08, -2.85902e+08, -2.99899e+08, -3.14053e+08, -3.28365e+08, -3.42835e+08, -3.57463e+08, -3.72242e+08, -3.87168e+08, -4.02229e+08, -4.1741e+08, -4.32692e+08, -4.4805e+08, -4.6345e+08, -4.78851e+08, -4.942e+08, -5.09434e+08, -5.24474e+08, -5.39221e+08, -5.53561e+08, -5.67352e+08, -5.80424e+08, -5.92576e+08, -6.03571e+08, -6.13128e+08, -6.2092e+08, -6.26569e+08, -6.29643e+08, -6.29654e+08, -6.26061e+08, -6.18273e+08, -6.05666e+08, -5.87599e+08, -5.63442e+08, -5.32624e+08, -4.94678e+08, -4.49304e+08, -3.96437e+08, -3.3631e+08, -2.69504e+08, -1.96976e+08, -1.20043e+08, -4.03314e+07, 4.03314e+07, 1.20043e+08, 1.96976e+08, 2.69504e+08, 3.3631e+08, 3.96437e+08, 4.49304e+08, 4.94678e+08, 5.32624e+08, 5.63442e+08, 5.87599e+08, 6.05666e+08, 6.18273e+08, 6.26061e+08, 6.29654e+08, 6.29643e+08, 6.26569e+08, 6.2092e+08, 6.13128e+08, 6.03571e+08, 5.92576e+08, 5.80424e+08, 5.67352e+08, 5.53561e+08, 5.39221e+08, 5.24474e+08, 5.09434e+08, 4.942e+08, 4.78851e+08, 4.6345e+08, 4.4805e+08, 4.32692e+08, 4.1741e+08, 4.02229e+08, 3.87168e+08, 3.72242e+08, 3.57463e+08, 3.42835e+08, 3.28365e+08, 3.14053e+08, 2.99899e+08, 2.85902e+08, 2.72059e+08, 2.58365e+08, 2.44816e+08, 2.31407e+08, 2.1813e+08, 2.04981e+08, 1.91953e+08, 1.79037e+08, 1.66228e+08, 1.53518e+08, 1.409e+08, 1.28366e+08, 1.15909e+08, 1.03522e+08, 9.11971e+07, 7.89269e+07, 6.67042e+07, 5.45215e+07, 4.23717e+07, 3.02473e+07, 1.81411e+07, 6.04582e+06
-6.15094e+06, -1.84569e+07, -3.0775e+07, -4.31135e+07, -5.54804e+07, -6.78841e+07, -8.03328e+07, -9.28348e+07, -1.05398e+08, -1.18032e+08, -1.30745e+08, -1.43544e+08, -1.56439e+08, -1.69439e+08, -1.82553e+08, -1.95788e+08, -2.09154e+08, -2.2266e+08, -2.36314e+08, -2.50125e+08, -2.641e+08, -2.78249e+08, -2.92579e+08, -3.07096e+08, -3.21807e+08, -3.36718e+08, -3.51831e+08, -3.67151e+08, -3.82677e+08, -3.98407e+08, -4.14337e+08, -4.30458e+08, -4.46757e+08, -4.63215e+08, -4.79807e+08, -4.96498e+08, -5.13245e+08, -5.29991e+08, -5.46665e+08, -5.63179e+08, -5.79422e+08, -5.95258e+08, -6.10522e+08, -6.25012e+08, -6.38484e+08, -6.50648e+08, -6.61155e+08, -6.69595e+08, -6.75491e+08, -6.7829e+08, -6.77363e+08, -6.72008e+08, -6.61462e+08, -6.44912e+08, -6.21536e+08, -5.90546e+08, -5.51252e+08, -5.03146e+08, -4.45994e+08, -3.79934e+08, -3.05557e+08, -2.23964e+08, -1.36763e+08, -4.59956e+07, 4.59956e+07, 1.36763e+08, 2.23964e+08, 3.05557e+08, 3.79934e+08, 4.45994e+08, 5.03146e+08, 5.51252e+08, 5.90546e+08, 6.21536e+08, 6.44912e+08, 6.61462e+08, 6.72008e+08, 6.77363e+08, 6.7829e+08, 6.75491e+08, 6.69595e+08, 6.61155e+08, 6.50648e+08, 6.38484e+08, 6.25012e+08, 6.10522e+08, 5.95258e+08, 5.79422e+08, 5.63179e+08, 5.46665e+08, 5.29991e+08, 5.13245e+08, 4.96498e+08, 4.79807e+08, 4.63215e+08, 4.46757e+08, 4.30458e+08, 4.14337e+08, 3.98407e+08, 3.82677e+08, 3.67151e+08, 3.51831e+08, 3.36718e+08, 3.21807e+08, 3.07096e+08, 2.92579e+08, 2.78249e+08, 2.641e+08, 2.50125e+08, 2.36314e+08, 2.2266e+08, 2.09154e+08, 1.95788e+08, 1.82553e+08, 1.69439e+08, 1.56439e+08, 1.43544e+08, 1.30745e+08, 1.18032e+08, 1.05398e+08, 9.28348e+07, 8.03328e+07, 6.78841e+07, 5.54804e+07, 4.31135e+07, 3.0775e+07, 1.84569e+07, 6.15094e+06
-6.25199e+06, -1.87605e+07, -3.12824e+07, -4.38268e+07, -5.64026e+07, -6.90191e+07, -8.16854e+07, -9.44108e+07, -1.07205e+08, -1.20076e+08, -1.33036e+08, -1.46092e+08, -1.59256e+08, -1.72537e+08, -1.85946e+08, -1.99492e+08, -2.13187e+08, -2.27041e+08, -2.41064e+08, -2.55268e+08, -2.69663e+08, -2.84259e+08, -2.99068e+08, -3.14099e+08, -3.29363e+08, -3.44867e+08, -3.60622e+08, -3.76633e+08, -3.92907e+08, -4.09447e+08, -4.26255e+08, -4.43329e+08, -4.60663e+08, -4.78247e+08, -4.96065e+08, -5.1409e+08, -5.3229e+08, -5.5062e+08, -5.69018e+08, -5.87407e+08, -6.05689e+08, -6.23737e+08, -6.41394e+08, -6.58465e+08, -6.74707e+08, -6.89824e+08, -7.03456e+08, -7.15167e+08, -7.24437e+08, -7.30651e+08, -7.33092e+08, -7.30936e+08, -7.2326e+08, -7.09051e+08, -6.87244e+08, -6.56771e+08, -6.16638e+08, -5.66034e+08, -5.0446e+08, -4.31873e+08, -3.48825e+08, -2.56562e+08, -1.57048e+08, -5.28836e+07, 5.28836e+07, 1.57048e+08, 2.56562e+08, 3.48825e+08, 4.31873e+08, 5.0446e+08, 5.66034e+08, 6.16638e+08, 6.56771e+08, 6.87244e+08, 7.09051e+08, 7.2326e+08, 7.30936e+08, 7.33092e+08, 7.30651e+08, 7.24437e+08, 7.15167e+08, 7.03456e+08, 6.89824e+08, 6.74707e+08, 6.58465e+08, 6.41394e+08, 6.23737e+08, 6.05689e+08, 5.87407e+08, 5.69018e+08, 5.5062e+08, 5.3229e+08, 5.1409e+08, 4.96065e+08, 4.78247e+08, 4.60663e+08, 4.43329e+08, 4.26255e+08, 4.09447e+08, 3.92907e+08, 3.76633e+08, 3.60622e+08, 3.44867e+08, 3.29363e+08, 3.14099e+08, 2.99068e+08, 2.84259e+08, 2.69663e+08, 2.55268e+08, 2.41064e+08, 2.27041e+08, 2.13187e+08, 1.99492e+08, 1.85946e+08, 1.72537e+08, 1.59256e+08, 1.46092e+08, 1.33036e+08, 1.20076e+08, 1.07205e+08, 9.44108e+07, 8.16854e+07, 6.90191e+07, 5.64026e+07, 4.38268e+07, 3.12824e+07, 1.87605e+07, 6.25199e+06
-6.34856e+06, -1.90506e+07, -3.17673e+07, -4.45085e+07, -5.72842e+07, -7.01043e+07, -8.2979e+07, -9.59183e+07, -1.08933e+08, -1.22033e+08, -1.35229e+08, -1.48533e+08, -1.61955e+08, -1.75507e+08, -1.89201e+08, -2.03048e+08, -2.17061e+08, -2.31252e+08, -2.45634e+08, -2.6022e+08, -2.75024e+08, -2.90057e+08, -3.05335e+08, -3.2087e+08, -3.36677e+08, -3.52767e+08, -3.69155e+08, -3.85852e+08, -4.0287e+08, -4.20219e+08, -4.37907e+08, -4.55939e+08, -4.7432e+08, -4.93047e+08, -5.12114e+08, -5.31507e+08, -5.51207e+08, -5.71179e+08, -5.91379e+08, -6.11744e+08, -6.3219e+08, -6.52607e+08, -6.72853e+08, -6.92746e+08, -7.12054e+08, -7.30486e+08, -7.47677e+08, -7.63179e+08, -7.76438e+08, -7.86786e+08, -7.93417e+08, -7.95385e+08, -7.9159e+08, -7.80788e+08, -7.61619e+08, -7.32655e+08, -6.92495e+08, -6.39892e+08, -5.73938e+08, -4.94274e+08, -4.01309e+08, -2.96412e+08, -1.81982e+08, -6.13746e+07, 6.13746e+07, 1.81982e+08, 2.96412e+08, 4.01309e+08, 4.94274e+08, 5.73938e+08, 6.39892e+08, 6.92495e+08, 7.32655e+08, 7.61619e+08, 7.80788e+08, 7.9159e+08, 7.95385e+08, 7.93417e+08, 7.86786e+08, 7.76438e+08, 7.63179e+08, 7.47677e+08, 7.30486e+08, 7.12054e+08, 6.92746e+08, 6.72853e+08, 6.52607e+08, 6.3219e+08, 6.11744e+08, 5.91379e+08, 5.71179e+08, 5.51207e+08, 5.31507e+08, 5.12114e+08, 4.93047e+08, 4.7432e+08, 4.55939e+08, 4.37907e+08, 4.20219e+08, 4.0287e+08, 3.85852e+08, 3.69155e+08, 3.52767e+08, 3.36677e+08, 3.2087e+08, 3.05335e+08, 2.90057e+08, 2.75024e+08, 2.6022e+08, 2.45634e+08, 2.31252e+08, 2.17061e+08, 2.03048e+08, 1.89201e+08, 1.75507e+08, 1.61955e+08, 1.48533e+08, 1.35229e+08, 1.22033e+08, 1.08933e+08, 9.59183e+07, 8.2979e+07, 7.01043e+07, 5.72842e+07, 4.45085e+07, 3.17673e+07, 1.90506e+07, 6.34856e+06
-6.44023e+06, -1.9326e+07, -3.22276e+07, -4.51559e+07, -5.81214e+07, -7.1135e+07, -8.42078e+07, -9.73508e+07, -1.10575e+08, -1.23893e+08, -1.37316e+08, -1.50855e+08, -1.64525e+08, -1.78336e+08, -1.92303e+08, -2.06439e+08, -2.20757e+08, -2.35273e+08, -2.50001e+08, -2.64956e+08, -2.80154e+08, -2.95611e+08, -3.11344e+08, -3.2737e+08, -3.43706e+08, -3.6037e+08, -3.77379e+08, -3.94751e+08, -4.12503e+08, -4.30652e+08, -4.49213e+08, -4.68202e+08, -4.8763e+08, -5.07506e+08, -5.27836e+08, -5.48619e+08, -5.6985e+08, -5.91511e+08, -6.13575e+08, -6.35999e+08, -6.58719e+08, -6.81648e+08, -7.04665e+08, -7.27612e+08, -7.50277e+08, -7.72387e+08, -7.93589e+08, -8.13434e+08, -8.31352e+08, -8.46636e+08, -8.58407e+08, -8.65597e+08, -8.66926e+08, -8.60893e+08, -8.45788e+08, -8.19737e+08, -7.80794e+08, -7.27101e+08, -6.57128e+08, -5.69973e+08, -4.65727e+08, -3.45794e+08, -2.13094e+08, -7.20075e+07, 7.20075e+07, 2.13094e+08, 3.45794e+08, 4.65727e+08, 5.69973e+08, 6.57128e+08, 7.27101e+08, 7.80794e+08, 8.19737e+08, 8.45788e+08, 8.60893e+08, 8.66926e+08, 8.65597e+08, 8.58407e+08, 8.46636e+08, 8.31352e+08, 8.13434e+08, 7.93589e+08, 7.72387e+08, 7.50277e+08, 7.27612e+08, 7.04665e+08, 6.81648e+08, 6.58719e+08, 6.35999e+08, 6.13575e+08, 5.91511e+08, 5.6985e+08, 5.48619e+08, 5.27836e+08, 5.07506e+08, 4.8763e+08, 4.68202e+08, 4.49213e+08, 4.30652e+08, 4.12503e+08, 3.94751e+08, 3.77379e+08, 3.6037e+08, 3.43706e+08, 3.2737e+08, 3.11344e+08, 2.95611e+08, 2.80154e+08, 2.64956e+08, 2.50001e+08, 2.35273e+08, 2.20757e+08, 2.06439e+08, 1.92303e+08, 1.78336e+08, 1.64525e+08, 1.50855e+08, 1.37316e+08, 1.23893e+08, 1.10575e+08, 9.73508e+07, 8.42078e+07, 7.1135e+07, 5.81214e+07, 4.51559e+07, 3.22276e+07, 1.9326e+07, 6.44023e+06
-6.5266e+06, -1.95855e+07, -3.26615e+07, -4.57659e+07, -5.89104e+07, -7.21066e+07, -8.53664e+07, -9.87017e+07, -1.12125e+08, -1.25648e+08, -1.39285e+08, -1.53048e+08, -1.66952e+08, -1.81009e+08, -1.95236e+08, -2.09646e+08, -2.24256e+08, -2.39081e+08, -2.5414e+08, -2.69448e+08, -2.85025e+08, -3.00889e+08, -3.17061e+08, -3.3356e+08, -3.50408e+08, -3.67627e+08, -3.8524e+08, -4.03269e+08, -4.21738e+08, -4.40672e+08, -4.60093e+08, -4.80025e+08, -5.00491e+08, -5.21511e+08, -5.43104e+08, -5.65284e+08, -5.88062e+08, -6.11441e+08, -6.35412e+08, -6.59957e+08, -6.85039e+08, -7.10599e+08, -7.36548e+08, -7.6276e+08, -7.89056e+08, -8.15197e+08, -8.40859e+08, -8.65614e+08, -8.88901e+08, -9.09998e+08, -9.27977e+08, -9.4167e+08, -9.49625e+08, -9.5007e+08, -9.40904e+08, -9.1971e+08, -8.83841e+08, -8.30592e+08, -7.57498e+08, -6.62765e+08, -5.45831e+08, -4.07943e+08, -2.52592e+08, -8.55689e+07, 8.55689e+07, 2.52592e+08, 4.07943e+08, 5.45831e+08, 6.62765e+08, 7.57498e+08, 8.30592e+08, 8.83841e+08, 9.1971e+08, 9.40904e+08, 9.5007e+08, 9.49625e+08, 9.4167e+08, 9.27977e+08, 9.09998e+08, 8.88901e+08, 8.65614e+08, 8.40859e+08, 8.15197e+08, 7.89056e+08, 7.6276e+08, 7.36548e+08, 7.10599e+08, 6.85039e+08, 6.59957e+08, 6.35412e+08, 6.11441e+08, 5.88062e+08, 5.65284e+08, 5.43104e+08, 5.21511e+08, 5.00491e+08, 4.80025e+08, 4.60093e+08, 4.40672e+08, 4.21738e+08, 4.03269e+08, 3.8524e+08, 3.67627e+08, 3.50408e+08, 3.3356e+08, 3.17061e+08, 3.00889e+08, 2.85025e+08, 2.69448e+08, 2.5414e+08, 2.39081e+08, 2.24256e+08, 2.09646e+08, 1.95236e+08, 1.81009e+08, 1.66952e+08, 1.53048e+08, 1.39285e+08, 1.25648e+08, 1.12125e+08, 9.87017e+07, 8.53664e+07, 7.21066e+07, 5.89104e+07, 4.57659e+07, 3.26615e+07, 1.95855e+07, 6.5266e+06
-6.60729e+06, -1.98279e+07, -3.30668e+07, -4.63359e+07, -5.96478e+07, -7.30147e+07, -8.64494e+07, -9.99647e+07, -1.13574e+08, -1.2729e+08, -1.41128e+08, -1.55101e+08, -1.69225e+08, -1.83514e+08, -1.97985e+08, -2.12654e+08, -2.27539e+08, -2.42657e+08, -2.58028e+08, -2.73672e+08, -2.89608e+08, -3.0586e+08, -3.22449e+08, -3.39401e+08, -3.56739e+08, -3.74491e+08, -3.92684e+08, -4.11347e+08, -4.3051e+08, -4.50204e+08, -4.70462e+08, -4.91315e+08, -5.12798e+08, -5.34943e+08, -5.57785e+08, -5.81352e+08, -6.05675e+08, -6.30777e+08, -6.56675e+08, -6.83379e+08, -7.10882e+08, -7.39162e+08, -7.6817e+08, -7.97822e+08, -8.27991e+08, -8.58486e+08, -8.89035e+08, -9.1926e+08, -9.48642e+08, -9.76478e+08, -1.00183e+09, -1.02348e+09, -1.03983e+09, -1.04886e+09, -1.04805e+09, -1.03436e+09, -1.00427e+09, -9.53929e+08, -8.79505e+08, -7.77758e+08, -6.4689e+08, -4.87554e+08, -3.03763e+08, -1.03245e+08, 1.03245e+08, 3.03763e+08, 4.87554e+08, 6.4689e+08, 7.77758e+08, 8.79505e+08, 9.53929e+08, 1.00427e+09, 1.03436e+09, 1.04805e+09, 1.04886e+09, 1.03983e+09, 1.02348e+09, 1.00183e+09, 9.76478e+08, 9.48642e+08, 9.1926e+08, 8.89035e+08, 8.58486e+08, 8.27991e+08, 7.97822e+08, 7.6817e+08, 7.39162e+08, 7.10882e+08, 6.83379e+08, 6.56675e+08, 6.30777e+08, 6.05675e+08, 5.81352e+08, 5.57785e+08, 5.34943e+08, 5.12798e+08, 4.91315e+08, 4.70462e+08, 4.50204e+08, 4.3051e+08, 4.11347e+08, 3.92684e+08, 3.74491e+08, 3.56739e+08, 3.39401e+08, 3.22449e+08, 3.0586e+08, 2.89608e+08, 2.73672e+08, 2.58028e+08, 2.42657e+08, 2.27539e+08, 2.12654e+08, 1.97985e+08, 1.83514e+08, 1.69225e+08, 1.55101e+08, 1.41128e+08, 1.2729e+08, 1.13574e+08, 9.99647e+07, 8.64494e+07, 7.30147e+07, 5.96478e+07, 4.63359e+07, 3.30668e+07, 1.98279e+07, 6.60729e+06
-6.68193e+06, -2.00522e+07, -3.34417e+07, -4.68633e+07, -6.033e+07, -7.3855e+07, -8.74518e+07, -1.01134e+08, -1.14916e+08, -1.28811e+08, -1.42835e+08, -1.57004e+08, -1.71332e+08, -1.85837e+08, -2.00536e+08, -2.15446e+08, -2.30588e+08, -2.4598e+08, -2.61644e+08, -2.77602e+08, -2.93877e+08, -3.10493e+08, -3.27476e+08, -3.44855e+08, -3.62657e+08, -3.80914e+08, -3.99659e+08, -4.18926e+08, -4.38751e+08, -4.59174e+08, -4.80234e+08, -5.01975e+08, -5.24442e+08, -5.47681e+08, -5.71739e+08, -5.96665e+08, -6.22508e+08, -6.49316e+08, -6.77133e+08, -7.06e+08, -7.35948e+08, -7.66997e+08, -7.99146e+08, -8.32368e+08, -8.66599e+08, -9.0172e+08, -9.37536e+08, -9.73751e+08, -1.00993e+09, -1.04544e+09, -1.0794e+09, -1.11059e+09, -1.13736e+09, -1.15749e+09, -1.16807e+09, -1.16541e+09, -1.14495e+09, -1.10135e+09, -1.02884e+09, -9.21872e+08, -7.76417e+08, -5.91619e+08, -3.71661e+08, -1.26893e+08, 1.26893e+08, 3.71661e+08, 5.91619e+08, 7.76417e+08, 9.21872e+08, 1.02884e+09, 1.10135e+09, 1.14495e+09, 1.16541e+09, 1.16807e+09, 1.15749e+09, 1.13736e+09, 1.11059e+09, 1.0794e+09, 1.04544e+09, 1.00993e+09, 9.73751e+08, 9.37536e+08, 9.0172e+08, 8.66599e+08, 8.32368e+08, 7.99146e+08, 7.66997e+08, 7.35948e+08, 7.06e+08, 6.77133e+08, 6.49316e+08, 6.22508e+08, 5.96665e+08, 5.71739e+08, 5.47681e+08, 5.24442e+08, 5.01975e+08, 4.80234e+08, 4.59174e+08, 4.38751e+08, 4.18926e+08, 3.99659e+08, 3.80914e+08, 3.62657e+08, 3.44855e+08, 3.27476e+08, 3.10493e+08, 2.93877e+08, 2.77602e+08, 2.61644e+08, 2.4598e+08, 2.30588e+08, 2.15446e+08, 2.00536e+08, 1.85837e+08, 1.71332e+08, 1.57004e+08, 1.42835e+08, 1.28811e+08, 1.14916e+08, 1.01134e+08, 8.74518e+07, 7.3855e+07, 6.033e+07, 4.68633e+07, 3.34417e+07, 2.00522e+07, 6.68193e+06
-6.75018e+06, -2.02573e+07, -3.37845e+07, -4.73455e+07, -6.09539e+07, -7.46236e+07, -8.83687e+07, -1.02204e+08, -1.16143e+08, -1.30203e+08, -1.44399e+08, -1.58746e+08, -1.73262e+08, -1.87966e+08, -2.02874e+08, -2.18008e+08, -2.33387e+08, -2.49032e+08, -2.64967e+08, -2.81216e+08, -2.97804e+08, -3.14758e+08, -3.32108e+08, -3.49885e+08, -3.6812e+08, -3.8685e+08, -4.06111e+08, -4.25945e+08, -4.46394e+08, -4.67505e+08, -4.89326e+08, -5.1191e+08, -5.35315e+08, -5.59598e+08, -5.84824e+08, -6.11061e+08, -6.38377e+08, -6.66846e+08, -6.96542e+08, -7.27541e+08, -7.59914e+08, -7.93731e+08, -8.29048e+08, -8.65906e+08, -9.04319e+08, -9.44259e+08, -9.85638e+08, -1.02828e+09, -1.07188e+09, -1.11595e+09, -1.15973e+09, -1.20213e+09, -1.24153e+09, -1.27566e+09, -1.30133e+09, -1.31426e+09, -1.30876e+09, -1.27769e+09, -1.21261e+09, -1.10448e+09, -9.45287e+08, -7.30844e+08, -4.64368e+08, -1.59561e+08, 1.59561e+08, 4.64368e+08, 7.30844e+08, 9.45287e+08, 1.10448e+09, 1.21261e+09, 1.27769e+09, 1.30876e+09, 1.31426e+09, 1.30133e+09, 1.27566e+09, 1.24153e+09, 1.20213e+09, 1.15973e+09, 1.11595e+09, 1.07188e+09, 1.02828e+09, 9.85638e+08, 9.44259e+08, 9.04319e+08, 8.65906e+08, 8.29048e+08, 7.93731e+08, 7.59914e+08, 7.27541e+08, 6.96542e+08, 6.66846e+08, 6.38377e+08, 6.11061e+08, 5.84824e+08, 5.59598e+08, 5.35315e+08, 5.1191e+08, 4.89326e+08, 4.67505e+08, 4.46394e+08, 4.25945e+08, 4.06111e+08, 3.8685e+08, 3.6812e+08, 3.49885e+08, 3.32108e+08, 3.14758e+08, 2.97804e+08, 2.81216e+08, 2.64967e+08, 2.49032e+08, 2.33387e+08, 2.18008e+08, 2.02874e+08, 1.87966e+08, 1.73262e+08, 1.58746e+08, 1.44399e+08, 1.30203e+08, 1.16143e+08, 1.02204e+08, 8.83687e+07, 7.46236e+07, 6.09539e+07, 4.73455e+07, 3.37845e+07, 2.02573e+07, 6.75018e+06
-6.8117e+06, -2.04421e+07, -3.40936e+07, -4.77803e+07, -6.15165e+07, -7.53168e+07, -8.91958e+07, -1.03169e+08, -1.17251e+08, -1.31459e+08, -1.4581e+08, -1.60319e+08, -1.75006e+08, -1.89889e+08, -2.04988e+08, -2.20324e+08, -2.35918e+08, -2.51794e+08, -2.67976e+08, -2.8449e+08, -3.01364e+08, -3.18629e+08, -3.36314e+08, -3.54455e+08, -3.73088e+08, -3.92253e+08, -4.11991e+08, -4.32349e+08, -4.53376e+08, -4.75125e+08, -4.97654e+08, -5.21026e+08, -5.45308e+08, -5.70573e+08, -5.969e+08, -6.24376e+08, -6.53092e+08, -6.83148e+08, -7.14648e+08, -7.47706e+08, -7.82438e+08, -8.18965e+08, -8.57409e+08, -8.97889e+08, -9.4051e+08, -9.85358e+08, -1.03248e+09, -1.08185e+09, -1.13336e+09, -1.18673e+09, -1.24145e+09, -1.29666e+09, -1.35098e+09, -1.40228e+09, -1.44735e+09, -1.48152e+09, -1.49813e+09, -1.48805e+09, -1.43945e+09, -1.33814e+09, -1.16941e+09, -9.22101e+08, -5.95408e+08, -2.06543e+08, 2.06543e+08, 5.95408e+08, 9.22101e+08, 1.16941e+09, 1.33814e+09, 1.43945e+09, 1.48805e+09, 1.49813e+09, 1.48152e+09, 1.44735e+09, 1.40228e+09, 1.35098e+09, 1.29666e+09, 1.24145e+09, 1.18673e+09, 1.13336e+09, 1.08185e+09, 1.03248e+09, 9.85358e+08, 9.4051e+08, 8.97889e+08, 8.57409e+08, 8.18965e+08, 7.82438e+08, 7.47706e+08, 7.14648e+08, 6.83148e+08, 6.53092e+08, 6.24376e+08, 5.969e+08, 5.70573e+08, 5.45308e+08, 5.21026e+08, 4.97654e+08, 4.75125e+08, 4.53376e+08, 4.32349e+08, 4.11991e+08, 3.92253e+08, 3.73088e+08, 3.54455e+08, 3.36314e+08, 3.18629e+08, 3.01364e+08, 2.8449e+08, 2.67976e+08, 2.51794e+08, 2.35918e+08, 2.20324e+08, 2.04988e+08, 1.89889e+08, 1.75006e+08, 1.60319e+08, 1.4581e+08, 1.31459e+08, 1.17251e+08, 1.03169e+08, 8.91958e+07, 7.53168e+07, 6.15165e+07, 4.77803e+07, 3.40936e+07, 2.04421e+07, 6.8117e+06
-6.86621e+06, -2.06059e+07, -3.43675e+07, -4.81656e+07, -6.20151e+07, -7.59311e+07, -8.9929e+07, -1.04024e+08, -1.18234e+08, -1.32574e+08, -1.47061e+08, -1.61715e+08, -1.76554e+08, -1.91597e+08, -2.06866e+08, -2.22382e+08, -2.38168e+08, -2.5425e+08, -2.70653e+08, -2.87404e+08, -3.04535e+08, -3.22077e+08, -3.40064e+08, -3.58534e+08, -3.77525e+08, -3.97083e+08, -4.17252e+08, -4.38085e+08, -4.59636e+08, -4.81966e+08, -5.0514e+08, -5.29231e+08, -5.54317e+08, -5.80485e+08, -6.07828e+08, -6.36452e+08, -6.66469e+08, -6.98005e+08, -7.31198e+08, -7.66197e+08, -8.03166e+08, -8.42282e+08, -8.83735e+08, -9.2773e+08, -9.74475e+08, -1.02419e+09, -1.07706e+09, -1.13329e+09, -1.19299e+09, -1.25617e+09, -1.32269e+09, -1.39208e+09, -1.46345e+09, -1.53512e+09, -1.60428e+09, -1.66636e+09, -1.71419e+09, -1.73694e+09, -1.71899e+09, -1.63922e+09, -1.4721e+09, -1.19274e+09, -7.88619e+08, -2.77748e+08, 2.77748e+08, 7.88619e+08, 1.19274e+09, 1.4721e+09, 1.63922e+09, 1.71899e+09, 1.73694e+09, 1.71419e+09, 1.66636e+09, 1.60428e+09, 1.53512e+09, 1.46345e+09, 1.39208e+09, 1.32269e+09, 1.25617e+09, 1.19299e+09, 1.13329e+09, 1.07706e+09, 1.02419e+09, 9.74475e+08, 9.2773e+08, 8.83735e+08, 8.42282e+08, 8.03166e+08, 7.66197e+08, 7.31198e+08, 6.98005e+08, 6.66469e+08, 6.36452e+08, 6.07828e+08, 5.80485e+08, 5.54317e+08, 5.29231e+08, 5.0514e+08, 4.81966e+08, 4.59636e+08, 4.38085e+08, 4.17252e+08, 3.97083e+08, 3.77525e+08, 3.58534e+08, 3.40064e+08, 3.22077e+08, 3.04535e+08, 2.87404e+08, 2.70653e+08, 2.5425e+08, 2.38168e+08, 2.22382e+08, 2.06866e+08, 1.91597e+08, 1.76554e+08, 1.61715e+08, 1.47061e+08, 1.32574e+08, 1.18234e+08, 1.04024e+08, 8.9929e+07, 7.59311e+07, 6.20151e+07, 4.81656e+07, 3.43675e+07, 2.06059e+07, 6.86621e+06
